//Numpy array shape [96, 42]
//Min -0.398275405169
//Max 0.342758148909
//Number of zeros 2016

#ifndef W18_H_
#define W18_H_

#ifndef __SYNTHESIS__
dense_0_weight_t w18[4032];
#else
dense_0_weight_t w18[4032] = {0.0881456658, -0.0000000000, 0.0000000000, -0.0000000000, -0.1313716769, -0.0000000000, 0.0231332853, 0.0000000000, -0.0925574526, 0.3010955155, -0.0000000000, 0.0000000000, -0.0031693508, -0.0000000000, -0.0650859401, -0.0000000000, 0.0599082001, 0.0858799219, 0.0000000000, -0.1010319069, -0.0000000000, -0.1367142200, 0.0000000000, 0.1461825669, -0.0522254109, 0.0000000000, -0.0000000000, 0.0936049744, -0.0000000000, -0.0591877960, 0.0000000000, -0.0000000000, -0.0000000000, -0.0000000000, -0.1143486649, 0.0405033901, -0.0000000000, -0.0000000000, 0.0000000000, -0.0000000000, -0.0000000000, 0.2291974425, -0.0518816076, 0.0000000000, -0.0000000000, 0.0000000000, -0.0000000000, 0.0316703208, -0.1366894096, -0.0000000000, 0.0438268408, -0.2335889041, -0.0000000000, -0.0373914503, -0.0011263817, -0.0000000000, 0.0871589705, 0.2950412035, 0.1097035334, 0.0000000000, 0.0303365104, 0.0948719233, -0.3258658051, 0.0344610773, 0.0000000000, -0.0185341164, -0.0000000000, 0.1661298871, -0.0000000000, -0.0812796727, 0.0000000000, 0.0000000000, -0.0000000000, -0.0462460741, 0.2305657268, -0.1472629905, 0.0000000000, -0.0000000000, 0.0000000000, 0.0000000000, -0.1252191961, 0.0099415388, -0.0000000000, 0.0470430888, -0.0165745076, -0.0000000000, 0.0000000000, -0.0000000000, 0.0249453913, 0.0047570746, -0.0544653907, 0.2583128810, 0.3021042347, -0.2009274065, 0.0606274903, 0.0404729210, -0.0000000000, -0.0509045199, -0.0000000000, 0.0585155711, 0.0000000000, -0.0000000000, 0.2997519076, -0.0965950489, -0.0000000000, -0.2853402793, 0.2305621207, -0.0191257652, -0.0033547671, 0.1641359925, 0.0000000000, 0.0000000000, -0.0000000000, 0.0000000000, -0.0000000000, -0.0000000000, 0.0000000000, 0.0144568309, 0.0000000000, -0.1168350875, -0.1098761335, -0.2285312414, 0.1121133119, 0.0681708679, 0.1519117355, -0.0000000000, -0.1922709346, 0.0974028260, 0.0000000000, -0.1068153605, -0.0663943440, -0.0000000000, 0.0000000000, -0.2334087789, -0.0000000000, 0.0437699258, -0.0718002692, -0.0000000000, -0.0000000000, 0.0000000000, 0.0000000000, -0.0000000000, 0.0510795526, -0.0000000000, -0.0000000000, 0.0269514285, -0.1877575964, 0.0000000000, -0.0000000000, 0.0000000000, 0.1393306404, 0.1725853980, -0.0000000000, -0.0000000000, -0.0000000000, -0.0053008469, -0.0000000000, 0.0850312486, 0.0000000000, 0.0000000000, 0.0000000000, 0.1000103951, -0.1204488799, -0.0192024875, -0.0690093115, -0.0623304956, -0.0951736718, -0.0000000000, -0.1243521348, -0.0000000000, -0.0000000000, 0.0000000000, 0.0995965898, 0.0185522661, -0.0000000000, -0.1024016887, -0.0000000000, 0.0000000000, -0.1101811901, -0.0000000000, -0.0999639183, -0.0000000000, 0.0000000000, -0.0000000000, -0.0315058492, 0.1019816548, 0.0530938357, 0.0000000000, -0.0000000000, -0.0000000000, -0.0974594653, 0.1465619951, -0.0000000000, -0.0000000000, 0.0000000000, 0.0000000000, 0.2544265091, -0.0509622581, -0.0000000000, -0.1664862931, -0.2626024783, -0.0434452221, 0.0000000000, -0.0000000000, -0.1407147646, -0.1358030885, 0.0000000000, -0.2469526529, -0.1444427818, -0.0000000000, 0.0000000000, -0.0000000000, 0.0000000000, 0.0000000000, -0.1641413122, 0.1997725070, 0.0000000000, 0.1483498067, -0.0000000000, -0.0000000000, 0.0482016727, 0.0298243072, -0.0394989848, -0.0000000000, -0.0000000000, 0.1787211597, -0.0217923876, 0.0000000000, 0.0077554458, -0.1284133941, -0.0000000000, -0.0126835136, 0.0000000000, -0.0000000000, 0.0000000000, -0.0003304204, 0.0000000000, 0.0000000000, 0.1339583248, -0.0000000000, 0.1532073766, 0.1027985215, -0.0000000000, 0.0000000000, 0.1201061755, -0.1070242301, 0.0000000000, 0.0080364170, 0.0680096969, 0.0000000000, -0.0221055802, -0.0844397321, -0.1487130821, -0.0000000000, 0.0000000000, 0.0000000000, 0.2069805264, -0.0049326643, 0.0512966253, -0.0000000000, 0.0868330449, 0.0000000000, -0.0436075851, 0.1942598969, 0.0000000000, -0.0000000000, 0.0786564648, 0.0448926836, 0.0000000000, 0.0303869583, -0.0000000000, 0.1910971552, -0.0000000000, -0.0000000000, -0.0000000000, 0.0834273547, 0.1139577702, 0.0000000000, -0.0059222821, 0.0041203755, 0.2479244769, -0.0000000000, 0.2326119691, 0.1557591408, 0.0056537865, -0.0263129734, -0.0000000000, -0.0095414547, -0.0000000000, -0.0000000000, 0.0000000000, -0.0000000000, -0.0000000000, 0.0000000000, 0.1284666061, 0.0000000000, -0.2123655677, 0.0000000000, -0.0686687753, -0.0557836033, -0.1488105357, -0.0000000000, -0.4017652273, 0.0000000000, -0.0725692138, -0.1591841877, -0.1777991503, -0.0029607960, 0.2021492422, 0.0589607134, 0.0000000000, 0.0898648202, -0.1799201965, 0.0382074118, -0.0000000000, 0.1863382310, 0.0000000000, -0.2009052485, 0.1128408313, -0.0846568123, 0.2469394952, 0.0000000000, -0.0000000000, -0.0000000000, -0.1673884988, 0.0000000000, 0.1410534680, 0.0379965045, -0.0000000000, -0.0000000000, 0.0000000000, 0.1604632884, -0.2651960254, 0.0000000000, -0.0000000000, -0.1993008107, -0.2173907459, -0.1241708323, 0.0000000000, 0.0000000000, 0.0000000000, 0.0000000000, -0.0000000000, -0.0746563971, -0.0000000000, 0.0102607384, 0.0000000000, -0.3458253741, -0.0000000000, 0.0629917011, -0.2813011110, -0.0000000000, -0.0000000000, 0.2297836244, -0.3828322291, -0.0558950678, -0.0000000000, -0.0000000000, -0.1433576196, 0.1585894674, 0.0000000000, -0.0000000000, -0.0000000000, -0.0000000000, -0.0000000000, 0.3706558049, 0.0000000000, 0.0000000000, 0.0000000000, -0.0000000000, -0.2486688197, 0.1983748525, 0.0000000000, 0.0835925788, -0.0000000000, -0.2234762162, -0.0000000000, 0.1934427470, 0.0000000000, -0.0000000000, -0.0000000000, 0.0000000000, -0.0000000000, 0.0000000000, -0.1212878749, -0.0513447821, -0.2064677179, 0.0019787047, 0.0000000000, -0.0000000000, 0.1697169691, -0.0000000000, -0.1414916068, 0.0000000000, 0.0000000000, -0.0614249967, -0.0297910124, 0.0649580061, 0.0217944682, 0.0321858935, -0.1766583025, 0.0000000000, 0.0000000000, 0.0000000000, -0.0000000000, 0.0866170153, 0.1371119916, 0.1055484638, -0.0000000000, -0.0000000000, -0.1784351170, 0.0000000000, -0.0517889261, -0.0000000000, -0.0000000000, 0.0000000000, -0.0211876966, 0.0000000000, -0.0000000000, -0.0000000000, 0.0000000000, -0.0856894925, 0.0027063722, 0.0000000000, 0.0000000000, 0.0407715403, -0.0000000000, 0.1309299916, 0.0000000000, -0.0636211336, -0.0000000000, -0.0000000000, 0.2179271579, -0.2517140210, -0.0000000000, -0.0000000000, -0.0000000000, -0.0000000000, 0.0000000000, 0.0000000000, -0.1462458223, 0.1016819179, 0.0000000000, 0.0099438755, 0.0000000000, -0.0000000000, 0.0000000000, 0.0677432492, 0.2025811225, 0.0729433596, -0.0000000000, 0.0000000000, 0.0000000000, 0.2445704341, 0.0000000000, -0.2729339004, -0.0000000000, -0.0502429865, 0.0000000000, -0.0096137999, 0.0000000000, -0.1004694179, 0.0000000000, 0.0000000000, 0.0253299158, 0.0000000000, -0.0430463441, -0.1074839383, -0.0925092772, 0.0564323254, 0.0000000000, 0.0995702371, -0.0000000000, 0.1847852916, -0.0571837686, -0.0906901881, 0.0000000000, 0.0000000000, 0.0000000000, 0.0175687317, 0.0000000000, 0.0000000000, 0.1283030063, -0.0966422781, 0.3395312428, -0.1626205891, 0.0000000000, -0.0000000000, 0.0000000000, -0.1104736924, -0.2206837237, 0.0339184217, -0.0000000000, 0.0000000000, 0.0000000000, 0.0000000000, -0.0434766188, 0.1223299652, 0.0000000000, 0.0000000000, 0.0000000000, 0.1942979693, 0.0000000000, 0.1746821851, 0.1291683912, 0.5394948125, -0.0000000000, 0.0000000000, -0.1453191340, -0.0000000000, -0.0000000000, 0.0000000000, 0.0000000000, 0.0000000000, 0.2380100787, -0.1279993504, 0.0000000000, 0.1090674996, -0.0000000000, 0.0178540237, -0.0000000000, 0.0552590191, -0.3665959239, -0.0005354478, 0.0321136527, -0.0000000000, 0.0000000000, -0.0000000000, -0.0000000000, -0.2610168159, -0.3076137900, -0.0003411199, -0.0000000000, -0.3571352959, -0.0000000000, 0.1266635507, -0.2952791154, 0.0634566993, -0.0329605564, 0.1739907265, 0.2558005750, -0.1177885160, -0.0000000000, -0.0000000000, 0.0000000000, 0.2083406895, -0.0010812336, 0.0000000000, -0.0000000000, -0.1044980958, -0.0000000000, 0.0566599816, -0.0000000000, -0.0873687491, 0.0000000000, 0.0995466262, -0.0000000000, 0.0088512944, -0.0912655815, 0.1713777483, -0.0000000000, -0.0944022238, -0.1184289679, 0.0720584542, -0.1508676559, -0.0000000000, 0.1800246388, -0.0451549478, 0.0000000000, -0.0265328065, -0.0026173007, 0.0520118847, 0.0000000000, 0.1134317070, -0.0000000000, 0.0000000000, 0.1756097674, -0.1007773504, 0.0000000000, 0.0000000000, 0.0000000000, 0.1012094393, -0.0000000000, -0.0000000000, -0.0000000000, -0.0000000000, 0.0000000000, -0.0000000000, 0.0000000000, -0.0000000000, 0.0514617078, -0.0837686881, 0.1802674085, 0.2805247605, 0.0000000000, 0.0000000000, 0.2622968256, -0.1694531590, -0.0000000000, -0.0846056268, -0.0000000000, -0.0406905524, 0.0000000000, -0.0134334732, 0.0000000000, -0.0126313036, 0.1473182589, 0.0000000000, 0.1037209332, 0.2098243088, 0.0000000000, -0.0000000000, 0.0000000000, 0.0000000000, -0.0000000000, -0.0000000000, -0.0000000000, -0.1203763261, 0.0000000000, -0.1391630918, 0.0293683130, -0.0000000000, 0.0000000000, -0.0000000000, -0.0187016185, -0.1537902355, -0.0828097984, -0.0000000000, -0.0000000000, -0.0000000000, 0.0772443786, -0.0000000000, -0.0874026790, 0.1001077890, 0.0000000000, 0.0000000000, -0.1370360553, 0.1525777727, 0.0000000000, -0.0015700405, 0.0000000000, 0.0582674518, 0.0000000000, -0.0000000000, 0.1385655254, 0.0000000000, 0.0000000000, 0.0000000000, 0.0000000000, -0.0000000000, 0.0562800430, 0.0000000000, -0.0000000000, -0.1456095874, 0.0000000000, -0.3622730076, -0.1274163574, -0.0159363300, 0.0000000000, -0.0000000000, 0.0271792393, 0.0622648224, -0.1879584044, 0.1109465808, -0.0000000000, -0.0081765112, 0.0217191298, 0.0000000000, -0.0000000000, 0.0000000000, 0.0372061543, -0.0000000000, -0.1607875526, -0.2034933269, 0.0000000000, -0.0000000000, -0.0000000000, 0.0000000000, -0.0929392725, -0.0000000000, 0.0655654818, -0.0000000000, 0.0000000000, -0.0003179276, -0.0000000000, 0.0000000000, 0.0000000000, -0.0404821932, 0.1730945259, -0.0000000000, -0.0000000000, -0.1560939103, -0.0000000000, 0.0000000000, 0.0000000000, -0.0988285989, -0.1585235447, 0.0000000000, -0.0000000000, -0.0172939226, -0.0043025017, 0.0187985860, -0.0000000000, -0.0764634088, 0.0000000000, 0.0000000000, 0.0000000000, -0.2047963589, -0.1230423003, -0.0000000000, 0.2121058851, -0.0000000000, 0.0000000000, -0.0000000000, -0.1055657044, -0.0000000000, -0.0000000000, -0.0780619904, 0.2309432477, -0.1276674271, -0.1163253039, 0.0000000000, -0.2186690718, 0.0060477396, -0.0389850102, -0.0507754497, 0.3455909789, 0.1353590935, -0.2556042373, -0.0000000000, -0.0000000000, -0.0000000000, 0.1264628321, -0.1365512758, 0.2344533652, 0.0000000000, -0.0000000000, -0.0000000000, -0.0884298384, -0.0000000000, 0.0000000000, -0.1199470237, 0.0000000000, 0.0976712108, -0.0000000000, 0.0109441066, -0.0000000000, 0.0998566821, -0.1267004013, -0.1579833478, -0.0000000000, -0.0886352286, 0.0092034014, 0.0000000000, 0.0935891196, -0.2442763299, -0.1316446662, -0.0000000000, 0.1680353582, -0.1771227270, 0.0193578210, 0.0000000000, 0.0745320022, -0.0000000000, -0.0000000000, -0.2515745759, 0.0000000000, -0.0000000000, -0.0000000000, 0.1945240647, -0.1203462034, -0.2168458849, 0.0707357377, -0.0000000000, 0.0000000000, -0.0000000000, 0.2708716989, 0.0254417416, -0.0000000000, -0.0000000000, 0.0000000000, 0.0000000000, -0.0000000000, 0.0270356182, 0.0000000000, 0.0000000000, -0.0000000000, 0.0000000000, 0.2383802682, -0.0646755174, 0.2629538178, 0.0000000000, -0.0000000000, -0.0000000000, 0.0000000000, -0.0000000000, -0.3383058012, -0.2037988901, 0.0000000000, -0.0000000000, -0.1532347202, 0.0000000000, -0.0000000000, 0.0000000000, 0.0000000000, -0.0300412755, -0.1262005866, 0.0000000000, -0.0000000000, -0.0608373359, 0.0000000000, -0.0000000000, -0.1121355966, 0.0000000000, 0.0815538093, 0.0000000000, -0.0584910214, 0.0000000000, -0.0000000000, -0.0000000000, -0.0000000000, 0.0000000000, 0.1020751446, 0.0982343182, 0.0262585972, 0.0372578464, 0.0000000000, 0.0000000000, -0.1918984056, 0.0000000000, -0.2168180346, 0.0000000000, -0.0000000000, 0.0329024382, 0.0502820127, 0.1093070507, -0.0479957871, 0.0000000000, -0.0000000000, -0.0527154207, -0.0000000000, -0.0000000000, -0.1552236229, -0.0000000000, -0.0000000000, 0.0000000000, 0.0818259045, 0.0000000000, 0.0000000000, -0.0104366746, -0.0000000000, -0.0000000000, -0.2074224502, -0.1270740330, -0.0582056008, -0.0000000000, 0.0000000000, 0.0024018993, 0.0000388108, -0.0460222028, 0.0000000000, -0.1368500888, 0.0000000000, 0.0000000000, -0.0000000000, -0.0195840504, 0.0000000000, -0.0227955077, -0.0000000000, 0.0000000000, 0.0000000000, -0.0000000000, -0.0000000000, -0.0000000000, -0.0000000000, 0.0000000000, -0.2090132982, 0.0000000000, -0.0000000000, -0.0000000000, -0.0000000000, -0.0285214223, -0.0000000000, 0.0000000000, -0.0000000000, -0.0000000000, -0.0000000000, -0.1139960438, -0.1263418049, -0.0000000000, -0.0000000000, -0.0841678455, 0.0000000000, 0.2127209157, -0.0000000000, -0.1464044601, -0.0427534841, 0.0000000000, 0.0000000000, 0.1023249552, -0.0000000000, -0.0000000000, 0.0000000000, 0.0000000000, 0.0000000000, 0.0005645470, 0.0049049063, -0.0788144171, 0.2167621851, 0.0000000000, 0.0052624368, 0.0422171094, -0.0000000000, 0.1924045682, -0.1773830950, 0.0000000000, 0.0000000000, 0.2022091597, 0.0657409355, 0.0818151981, -0.2714838088, 0.0000000000, -0.0000000000, 0.0000000000, -0.0000000000, 0.0078146225, 0.2467795312, -0.1145723760, -0.0000000000, 0.0948496014, -0.0045985105, 0.1976069659, -0.0199064501, -0.2745630443, 0.0239849985, -0.0244436506, 0.1445686519, 0.0000000000, 0.0000000000, 0.1220965087, 0.0904722214, -0.0000000000, 0.0000000000, -0.0187061820, 0.0000000000, -0.2826595306, 0.1202656403, -0.0000000000, 0.0000000000, 0.0445822217, -0.0373550206, -0.1612203121, -0.1447989941, 0.1756364554, -0.1317300051, -0.2632411718, -0.2265152335, 0.0386747234, -0.1689955741, 0.0000000000, 0.0000000000, 0.0000000000, -0.0456503592, -0.0000000000, -0.1067626551, -0.0000000000, 0.0000000000, 0.1084144413, 0.1377961487, 0.0000000000, -0.1077836528, 0.0000000000, 0.1203081161, 0.3620547652, 0.0000000000, -0.0000000000, -0.0000000000, -0.0000000000, 0.1363512427, -0.0934933349, -0.1294912249, -0.0000000000, -0.0186429638, -0.0000000000, 0.0000000000, -0.0000000000, -0.0000000000, 0.2023364156, 0.0000000000, -0.1170124188, 0.0000000000, -0.2498196959, -0.0000000000, 0.0000000000, -0.0000000000, -0.0035966013, 0.0507083908, 0.0000000000, 0.1239741668, 0.0000000000, 0.0810623318, -0.2129877508, -0.2330818772, -0.0000000000, -0.0343001410, -0.0000000000, 0.0000000000, -0.0000000000, 0.0000000000, -0.0000000000, -0.0185297970, 0.0074176956, -0.0000000000, 0.1062482446, -0.0297730453, -0.0000000000, 0.0000000000, 0.0000000000, 0.0637540072, 0.2124352604, 0.0000000000, -0.0000000000, 0.1060542688, 0.0000000000, -0.0000000000, 0.0000000000, 0.1242585033, 0.0593244024, -0.0313146450, -0.2122932374, 0.0000000000, -0.1214641929, -0.0000000000, -0.0000000000, 0.1189737692, -0.0248794444, 0.0184884556, -0.0000000000, 0.0587504096, 0.0000000000, 0.0353740752, -0.0000000000, 0.0000000000, -0.1006588042, -0.0000000000, 0.0000000000, -0.0000000000, 0.1560090333, -0.0000000000, -0.0000000000, 0.0000000000, -0.2532193959, -0.0000000000, -0.0000000000, 0.0000000000, 0.1607261598, 0.0261625890, -0.0035322392, -0.0283901971, -0.0373569243, 0.1508238614, 0.0000000000, -0.0000000000, 0.0000000000, -0.0000000000, -0.0000000000, -0.1168348640, -0.0510501266, 0.0000000000, 0.1626295894, 0.2243685722, -0.0211030673, 0.0000000000, 0.0000000000, 0.0000000000, 0.2637750208, -0.1818407774, 0.0000000000, -0.0514289886, 0.0000000000, -0.1159117669, 0.0463649221, -0.0000000000, -0.0646442398, 0.1261291802, -0.0000000000, 0.1417773962, 0.0985086709, 0.0000000000, 0.1578704864, -0.0000000000, -0.1254841089, -0.0000000000, -0.0000000000, 0.0000000000, -0.0000000000, 0.0000000000, 0.0014155665, 0.2789103985, -0.0000000000, 0.0592796803, 0.0000000000, -0.0000000000, 0.0000000000, -0.0000000000, -0.0000000000, 0.0000000000, -0.0040695886, 0.0000000000, -0.0000000000, 0.0000000000, 0.0000000000, 0.0000000000, 0.1216407567, 0.0000000000, -0.0000000000, 0.0000000000, 0.0000000000, -0.2358594388, -0.0000000000, 0.0000000000, -0.1048122942, 0.0000000000, -0.0000000000, -0.0000000000, -0.0602402128, 0.0310044140, -0.1821366102, -0.0000000000, -0.0000000000, -0.0000000000, -0.0000000000, -0.0921803787, -0.0000000000, -0.4171818793, 0.1387624294, -0.0000000000, -0.0000000000, -0.0010711846, -0.2012247890, -0.0953864008, -0.0548360310, -0.0000000000, 0.1319629848, -0.0733751357, 0.0932698324, 0.0000000000, 0.1207067445, 0.0000000000, -0.2257977724, -0.0000000000, -0.0300883632, -0.0000000000, -0.0077631786, 0.3982746601, -0.0006842973, 0.1806567758, -0.0836529657, -0.0000000000, 0.0820333958, 0.0000000000, -0.0000000000, -0.0000000000, 0.0000000000, 0.1490181088, -0.0000000000, 0.2751331031, 0.0000000000, 0.0000000000, -0.1043592617, -0.1886474788, -0.0000000000, -0.0000000000, -0.1300207675, -0.1197516993, 0.0000000000, -0.1233096421, -0.0440897159, -0.0000000000, -0.0000000000, 0.0886591598, 0.0692004189, 0.0292115025, 0.0000000000, -0.2237703949, 0.0803346187, 0.0000000000, -0.0000000000, 0.0000000000, -0.0000000000, 0.0000000000, -0.0000000000, -0.2274335474, -0.0000000000, 0.2927596867, -0.0045273392, -0.0000000000, -0.0000000000, 0.0000000000, -0.1090631709, -0.0050195944, -0.0000000000, -0.0751313791, -0.1323869973, 0.0575311333, 0.0000000000, -0.1333507150, 0.0000000000, -0.1473526359, 0.0000000000, 0.0000000000, 0.1062293500, -0.0000000000, -0.0192074012, -0.0000000000, -0.1245101690, -0.1706259102, -0.0000000000, 0.1425176263, 0.0464920886, 0.1553421021, 0.0954788178, -0.0930563658, 0.0000000000, -0.0342558958, 0.0000000000, -0.0000000000, -0.2266566455, 0.0118588349, -0.0000000000, 0.0000000000, -0.0000000000, -0.0227483083, 0.1578578055, -0.0000000000, 0.2303077132, -0.0000000000, -0.0000000000, 0.0000000000, -0.1085591316, 0.0000000000, -0.0540342070, 0.0000000000, -0.0451332293, 0.2219978869, -0.0000000000, -0.6423522234, 0.0000000000, -0.2166780233, 0.0318677984, -0.0006241289, -0.0633918941, 0.0000000000, -0.1483162344, -0.0857466981, 0.0000000000, -0.0733528286, -0.0027760733, 0.0000000000, 0.0000000000, -0.0623043925, 0.0000000000, 0.1216631830, -0.0000000000, -0.2127892822, -0.1898525953, -0.1738888025, -0.0000000000, -0.0000000000, -0.0000000000, -0.0000000000, 0.0000000000, -0.0000000000, -0.0000000000, -0.0003637945, -0.1403785199, 0.0416803509, 0.0470469333, -0.0907173678, -0.0000000000, 0.0000000000, -0.1053581610, -0.0624654591, -0.0047982293, 0.0000000000, -0.1635903865, 0.0000000000, -0.0000000000, -0.3282195032, 0.0877256989, -0.0000000000, 0.0000000000, -0.2181915343, -0.0000000000, 0.0000000000, 0.0008617354, 0.0000000000, 0.0008086645, -0.1906355619, 0.0376605913, 0.0000000000, -0.1066648886, 0.0000000000, 0.0000000000, -0.0000000000, 0.1462731063, -0.0000000000, -0.0000000000, 0.0858264193, 0.0000000000, 0.0040327455, 0.0000000000, 0.0000000000, -0.0000000000, 0.1017379537, -0.0000000000, -0.1392571330, 0.0000000000, 0.1865699291, 0.0441251993, -0.0000000000, 0.0002984050, -0.0000000000, -0.0000000000, 0.0000000000, 0.0000000000, 0.0755692422, 0.0000000000, 0.0000000000, 0.0000000000, -0.0000000000, 0.0000000000, 0.0000000000, -0.0000000000, -0.1862088442, 0.0000000000, -0.0128064808, 0.1106485575, -0.0529819429, -0.0787133574, 0.0000000000, -0.0000000000, -0.0720354840, -0.1068606004, 0.0000000000, 0.0000000000, -0.0000000000, 0.1494857967, -0.0837659687, 0.0000000000, -0.0133012002, 0.0653891861, -0.0007166114, 0.1681623608, 0.0000000000, -0.0000000000, 0.0000000000, -0.0000000000, -0.0659073666, 0.4232240319, -0.1528551579, -0.0000000000, -0.0508327447, 0.0000000000, 0.2704554796, -0.0000000000, 0.0000000000, -0.0204308592, 0.0000000000, 0.0000000000, -0.0000000000, -0.0000000000, 0.0000000000, 0.0240446534, -0.0000000000, -0.1470810324, -0.0000000000, -0.2554466128, 0.0000000000, 0.0541823767, 0.1654830426, -0.0000000000, 0.0000000000, -0.0000000000, 0.1742903888, 0.0000000000, -0.0000000000, -0.0732410848, -0.0000000000, -0.3166490495, -0.0000000000, 0.0000000000, 0.0000000000, 0.0000000000, 0.0000000000, -0.2809714675, 0.1249395013, -0.1891001612, 0.0621564016, -0.0000000000, -0.0000000000, -0.0000000000, -0.0029520364, -0.1908585578, -0.0220848080, -0.0000000000, 0.0000000000, -0.0000000000, 0.0000000000, -0.1928961426, -0.1676651686, 0.0000000000, 0.0000000000, -0.0000000000, 0.0000000000, -0.0186775811, -0.0019459119, 0.0000000000, 0.0000000000, 0.0311605278, 0.0000000000, -0.0000000000, 0.2113512605, 0.0000000000, 0.0000000000, -0.1898183525, 0.0978536755, -0.0000000000, 0.0000000000, -0.0000000000, -0.0000000000, 0.1577116847, 0.1169027537, 0.1046334505, 0.0000000000, 0.0071821008, 0.0000000000, 0.0000000000, 0.0000000000, 0.1692669392, 0.0000000000, -0.1888064444, -0.1223650053, 0.1351470053, 0.1429775655, -0.0000000000, 0.1535337567, -0.0000000000, 0.0449682511, -0.0000000000, -0.1372871995, 0.0969884768, 0.0000000000, 0.0546395779, -0.2130407840, 0.1527706236, -0.0000000000, 0.0000000000, -0.1505252719, -0.2950749993, -0.1666740477, -0.1001475379, -0.4350621402, 0.1329055279, -0.1349338591, -0.0623560473, 0.1272040159, 0.2294808924, -0.0613308698, -0.1857196540, 0.0000000000, -0.1201791465, -0.0000000000, 0.0000000000, 0.0962041393, -0.0000000000, -0.1616213322, -0.0000000000, -0.0411399156, 0.2854532301, 0.0933291093, -0.1394967586, -0.2580929995, 0.1425692588, 0.0641685799, -0.0000000000, -0.3328168392, -0.0610013716, -0.0000000000, -0.0000000000, -0.1965644360, -0.0318545811, 0.0000000000, -0.1743318290, 0.0000000000, 0.1357280761, -0.4914684892, -0.0207835790, -0.0000000000, 0.0000000000, -0.1313996017, -0.1344831288, 0.3310092986, -0.1459459811, 0.1436091959, 0.0993268043, -0.0011485830, -0.0638454258, -0.0581884868, 0.0566689782, 0.0000000000, 0.0000000000, 0.0000000000, 0.0020077275, -0.2826144099, -0.3518927097, -0.0838776007, 0.0000000000, 0.0000000000, 0.0000000000, -0.2288147956, 0.0000000000, -0.0795668289, -0.0000000000, -0.0529947244, -0.0000000000, 0.0000000000, -0.1472035646, 0.0000000000, -0.0000000000, -0.0000000000, -0.0000000000, -0.1452193409, -0.0000000000, -0.0909286216, -0.0279943384, -0.0000000000, -0.2169998437, -0.0874343216, 0.0011272095, -0.0839285180, -0.3161025047, 0.2794540226, 0.0000000000, -0.0000000000, -0.1056318656, 0.0736031607, -0.0000000000, 0.1228587180, 0.0606370792, 0.0000000000, -0.0693446472, -0.1065703779, 0.0000000000, 0.1763334721, 0.0000000000, -0.0000000000, -0.0000000000, -0.0000000000, 0.0000000000, -0.1083855480, 0.0000000000, -0.0508183800, -0.0707750916, 0.1971298009, -0.0000000000, 0.1871094108, 0.0791072696, 0.0541038588, -0.1200384051, -0.1070376486, -0.1408596635, -0.2841896415, -0.0367558189, -0.1313811541, -0.0000000000, 0.0000000000, -0.1181793660, -0.1841413230, -0.0000000000, -0.3350792229, 0.0000000000, -0.0000000000, -0.0000000000, -0.0003776256, 0.0000000000, 0.0000000000, -0.0053398134, 0.0000000000, -0.0000000000, 0.2637171447, 0.0000000000, 0.0000000000, -0.1100078449, 0.0000000000, 0.0000000000, 0.0000000000, 0.2582826018, -0.1254514754, -0.0000000000, -0.0000000000, 0.0000000000, -0.0073787696, 0.0000000000, 0.3654505014, -0.1994609684, -0.1459377557, -0.3000858724, -0.4295091927, -0.0000000000, -0.0788305402, -0.1258900166, -0.0943980366, -0.0000000000, -0.0000000000, -0.0000000000, 0.0171771143, -0.0000000000, 0.0000000000, -0.1602022201, -0.0000000000, -0.0000000000, 0.0000000000, -0.0000000000, 0.0000000000, -0.1798336804, -0.0082085133, 0.0000000000, -0.0000000000, 0.0000000000, 0.0000000000, -0.0878169611, -0.2074919641, -0.0000000000, -0.1074079499, -0.0010930551, 0.2127441019, 0.0000000000, -0.1331227720, -0.0000000000, -0.0000000000, -0.0000000000, -0.0000000000, 0.0000000000, -0.0000000000, 0.0000000000, -0.0000000000, -0.0000000000, -0.2826005220, -0.0000000000, 0.0000000000, -0.0761487409, -0.0000000000, 0.0022997174, 0.0000000000, 0.0000000000, 0.0000000000, -0.0000000000, 0.0000000000, -0.0000000000, -0.0000000000, -0.1136620417, 0.0000000000, -0.0000000000, 0.0000000000, -0.0611222722, 0.0074560880, 0.0000000000, -0.0000000000, 0.0000000000, -0.2077554762, -0.0123684127, 0.0000000000, -0.2446150929, 0.1586125344, 0.0000000000, 0.0000000000, 0.0000000000, -0.0000000000, -0.1876780540, -0.1702527702, 0.0012406762, -0.0000000000, -0.0595579892, 0.0000000000, 0.0246765744, 0.0000000000, -0.2276450098, 0.0000000000, -0.0000000000, 0.0000000000, 0.1364659667, 0.0844505504, 0.1043180972, -0.0000000000, -0.1341646314, -0.0000000000, 0.0000000000, -0.0602383539, -0.0000000000, -0.1973927468, 0.0000000000, -0.0000000000, 0.0000000000, 0.1437829584, -0.0000000000, -0.1657807678, -0.0000000000, -0.0000000000, 0.0000000000, 0.1671730727, 0.0000000000, 0.1147743762, 0.0000000000, -0.0000118971, -0.1819479614, 0.0000000000, 0.0577610321, 0.0050715669, -0.0511281863, 0.0000000000, -0.0000000000, -0.0443899706, -0.0237927772, 0.0000000000, 0.2149361223, -0.2032151520, 0.0000000000, 0.0000000000, -0.0000000000, -0.0000000000, 0.0783575326, 0.0000000000, 0.0356449746, 0.0870505571, -0.0000000000, -0.1121108979, 0.0631507114, -0.0000000000, -0.0000000000, -0.0593397915, -0.0000000000, 0.0019042923, -0.0000000000, 0.2562761307, -0.0072087673, 0.0000000000, -0.0000000000, 0.0000000000, 0.2198316008, -0.0000000000, 0.1359715313, -0.0917923599, -0.0000000000, -0.0000000000, 0.0000000000, 0.0558786206, -0.0000000000, 0.0274821557, -0.0000000000, 0.0000000000, -0.0129280016, -0.1409035921, -0.0651498586, -0.0000000000, -0.0218691863, -0.0000000000, 0.1721953303, -0.0000000000, 0.0000000000, 0.0259368904, -0.1243179813, -0.1034485027, 0.0000000000, -0.0618843138, -0.0000000000, -0.1941206008, -0.0935223699, 0.0000000000, -0.1136056632, 0.0000000000, 0.0000000000, -0.0101519180, -0.1512714922, 0.1032224596, -0.1074438766, -0.1544517875, -0.0000000000, 0.0000000000, 0.0000000000, -0.0838117078, 0.0814805850, -0.0000000000, -0.1252548099, -0.1146547347, 0.0965357050, -0.0606613904, -0.1217628568, -0.1570194066, -0.0611788034, -0.0000000000, 0.0000000000, -0.1669946462, -0.1025065035, -0.1468137652, -0.0354417525, 0.1148862913, 0.0063304771, -0.0000000000, 0.1940980256, -0.1402347088, -0.0000000000, 0.0716753528, -0.0000000000, -0.0310151111, 0.0000000000, -0.0000000000, -0.0519104190, -0.0000000000, 0.0000000000, 0.0000000000, -0.0000000000, 0.0000000000, -0.1487077475, -0.0648015141, -0.0000000000, -0.0000000000, -0.0984979272, -0.1221943945, 0.0279831719, -0.2545919418, 0.1975856870, -0.0000000000, -0.0146402111, 0.0000000000, 0.0000000000, 0.0000000000, 0.3139659464, 0.0000000000, -0.0000000000, 0.0000000000, 0.0000000000, -0.0000000000, 0.0000000000, 0.0276294220, 0.0109453062, -0.1524854153, 0.1929253936, -0.0000000000, 0.0006635090, -0.0000000000, 0.0000000000, -0.0000000000, 0.0000000000, 0.0268039387, -0.2523698211, -0.2565817237, -0.0000000000, 0.0000000000, -0.1281658560, 0.2374007553, -0.0000000000, 0.0099150613, -0.0000000000, -0.0000000000, -0.0000000000, -0.0000000000, -0.0000000000, 0.0000000000, 0.0038830275, -0.1518885791, 0.1325938851, -0.0000000000, -0.0000000000, 0.0000000000, -0.0152885281, -0.0000000000, 0.0000000000, 0.0000000000, -0.0693805218, 0.0000000000, -0.1336384267, -0.1076494828, 0.0000000000, 0.0000000000, -0.0539044514, 0.2618806064, -0.0000000000, -0.0924102142, -0.0520148352, 0.0000000000, -0.2051055878, -0.0000000000, -0.0000000000, -0.0000000000, 0.0000000000, -0.1762281060, -0.2435903996, -0.1479668170, -0.0154275130, 0.0658496916, -0.0000000000, 0.1986421347, 0.0584843084, 0.0469874181, -0.0062808394, -0.3059517145, -0.1576390415, -0.1499446630, 0.0000000000, -0.2001841366, 0.1326667666, -0.3122322857, -0.2505646944, -0.1005931273, -0.0032266227, 0.1002720073, 0.0000000000, -0.0964010581, 0.0000000000, 0.1053553820, -0.2880643606, 0.0000000000, 0.0814642832, 0.0404084735, -0.0000000000, -0.0938442275, 0.0849207342, 0.0000000000, -0.2305585593, -0.0000000000, -0.0000000000, 0.0000000000, -0.0486833565, 0.0000000000, -0.0000000000, -0.1609767675, -0.0000000000, 0.1954686344, -0.0375622921, -0.0558646359, -0.1199461147, -0.0000000000, 0.0000000000, -0.0316923149, 0.0377575308, -0.0000000000, -0.0000000000, -0.0000000000, -0.1768962890, 0.0000000000, 0.0000000000, -0.1482365429, 0.0000000000, 0.0000000000, 0.1807125509, 0.0000000000, 0.1693303585, 0.0000000000, -0.0000000000, -0.0000000000, -0.0100744413, -0.0000000000, -0.1424367279, -0.0000000000, 0.0000000000, 0.0623728335, -0.0000000000, 0.3128361106, 0.0000000000, 0.0459409989, 0.0000000000, -0.2125360519, 0.0051884018, 0.0000000000, -0.1256237030, -0.0007793639, 0.0464039408, -0.0000000000, 0.1715391129, -0.0000000000, 0.0000000000, 0.0000000000, 0.0000000000, 0.0000000000, 0.1045476943, 0.0000000000, -0.0000000000, 0.0390034020, 0.0000000000, 0.0625985116, 0.0000000000, -0.0000000000, 0.0000000000, -0.1728308648, 0.0895647481, 0.0000000000, 0.1856741309, 0.0000000000, 0.0771743208, 0.0824978948, 0.0000000000, 0.0035207011, 0.0739922523, -0.0000000000, 0.0006385546, -0.0000000000, -0.0719834864, -0.2060368806, -0.0000000000, -0.0000000000, 0.0000000000, 0.0000000000, 0.0000000000, -0.0000000000, -0.0000000000, -0.0000000000, -0.0000000000, -0.0000000000, -0.0000000000, 0.1363445669, -0.2442784607, 0.0000000000, 0.0310145114, -0.0207766946, -0.0000000000, -0.0000000000, -0.1152045056, -0.0000000000, -0.0000000000, 0.0000000000, 0.0677969977, -0.2772654891, 0.0000000000, 0.0000000000, -0.0000000000, 0.0199787579, -0.0000000000, 0.0000000000, 0.0000000000, 0.0000000000, 0.0000000000, 0.0000000000, 0.0000000000, -0.0000000000, 0.0800222307, 0.0000000000, -0.0000000000, 0.0000000000, -0.0391381532, 0.0833127871, -0.0000000000, -0.0000000000, 0.0313286670, 0.0000000000, -0.0000000000, -0.1251127273, 0.0000000000, 0.0000000000, -0.1485213041, -0.0000000000, 0.0000000000, -0.0010606736, -0.0016987438, -0.0000000000, 0.0000000000, 0.0000000000, 0.0000000000, 0.1603163630, -0.0000000000, -0.0000000000, -0.0001728401, -0.0000000000, -0.0000000000, -0.0000000000, 0.1337189972, 0.0000000000, -0.1356686354, 0.1501904726, 0.0000000000, 0.0039590965, 0.2445422858, 0.0000000000, 0.0560718104, 0.0000000000, 0.0000000000, -0.0000000000, -0.2648007274, 0.0000000000, -0.0000000000, 0.0000000000, 0.0000000000, 0.0000000000, 0.1420485228, -0.0000000000, -0.1597219408, -0.0000000000, -0.0000000000, -0.2806246281, -0.0921703279, -0.0000000000, -0.2624377608, -0.0000000000, -0.0000000000, 0.0612306446, -0.2575094104, -0.0000000000, -0.1387315691, -0.0000000000, 0.0000000000, 0.0428350046, -0.0000000000, 0.2012165040, -0.0678219646, 0.2267086059, -0.0344851166, -0.0000000000, -0.0029349930, 0.0192049257, 0.0084222155, -0.0000000000, -0.0000000000, -0.1411305666, -0.0281885546, 0.0000000000, 0.0736261755, 0.1592509449, -0.1730211526, -0.0000000000, 0.1194802523, 0.0000000000, 0.0000000000, 0.0000000000, -0.0000000000, 0.2220903337, -0.0821138024, -0.0000000000, -0.0197916888, 0.0191127229, -0.0895840004, 0.0000000000, -0.1405584812, -0.0153698754, -0.3686631620, -0.0000000000, 0.0724584684, -0.0672042519, 0.0000000000, 0.1260224581, -0.0135226054, -0.0000000000, -0.0000000000, 0.0000000000, -0.0000000000, -0.0000000000, -0.1401441246, 0.0412927680, 0.0000000000, -0.0863123238, 0.0493814498, 0.0952492729, 0.0000000000, -0.0000000000, -0.1811523885, 0.0000000000, -0.0929232016, 0.0000000000, 0.0000000000, -0.1956739277, 0.0051497146, 0.0000000000, 0.0000000000, -0.2313029915, -0.4519824386, 0.1524326503, 0.0000000000, 0.1326098293, -0.0000000000, 0.0023005921, -0.2183692753, 0.0000000000, -0.0000000000, 0.0000000000, -0.0435735397, 0.0447305143, -0.0000000000, -0.0782257244, -0.1476855874, 0.0000000000, 0.1520139873, 0.0406240635, 0.0000000000, -0.1189288646, 0.0090973973, -0.1199792475, 0.2711982727, 0.0000000000, -0.0000000000, -0.2010391951, -0.0000000000, -0.1637604088, -0.0000000000, -0.0000000000, -0.1108949408, -0.0000000000, -0.0000000000, 0.0000000000, -0.0000000000, -0.0000000000, -0.2674457729, -0.0845289901, 0.0000000000, 0.0898852423, 0.0000000000, 0.2245838493, 0.0000000000, -0.0000000000, -0.0886118412, 0.0000000000, 0.1870772243, -0.0262769386, -0.0000000000, -0.0000000000, -0.0000000000, -0.1181680560, -0.0000000000, 0.2140252143, 0.2425088733, -0.1264866889, 0.0000000000, -0.0000000000, -0.0000000000, -0.1737352312, 0.0000000000, -0.1465028971, 0.0000000000, 0.0000000000, -0.0062307864, 0.0000000000, 0.2546921670, -0.0319111235, -0.0000000000, 0.0315125175, -0.0000000000, 0.0000000000, -0.2918587923, 0.2080074549, 0.1551189125, 0.0000000000, 0.0113819707, 0.0000000000, 0.1332882792, 0.0704619810, -0.0000000000, 0.2277706563, 0.0000000000, -0.0074644671, 0.0395263657, -0.0000000000, 0.0000000000, 0.0000000000, 0.0000000000, 0.0651559904, 0.0000000000, -0.1315156966, 0.0112667996, -0.0000000000, -0.1985209286, 0.0000000000, 0.0389988050, 0.0000000000, 0.0000000000, 0.2137902975, 0.3020588756, -0.0012818606, -0.0363481641, -0.0104306284, -0.0000000000, 0.2455426157, -0.0000000000, 0.1481602639, -0.0000000000, 0.0623793341, 0.0000000000, -0.0000000000, 0.1556020677, 0.1606104076, -0.0000000000, 0.1253939867, 0.0000000000, -0.0489777960, -0.0000000000, 0.0000000000, 0.0579682961, -0.0007463444, -0.0000000000, -0.0000000000, -0.2613341212, -0.0292181857, 0.0000000000, -0.1002751440, 0.0964964554, 0.0000000000, -0.0000000000, -0.0008534157, -0.0000000000, 0.0651629269, -0.1999153942, -0.0000000000, -0.2771721780, 0.2254642546, 0.0753764361, 0.0000000000, -0.4452841580, 0.0000000000, 0.2610682249, -0.0920378268, 0.0000000000, -0.0000000000, 0.0000000000, -0.1232777014, 0.4286491871, 0.0000000000, -0.0000000000, -0.3597613573, -0.0000000000, 0.0000000000, 0.0000000000, 0.1214615330, -0.0000000000, -0.0485056713, -0.0626209378, 0.0801310092, -0.0000000000, -0.0000000000, 0.0000000000, 0.0000000000, 0.0000000000, 0.0000000000, 0.2356782556, 0.2306507975, 0.0000000000, -0.0000000000, -0.0411254168, 0.1820574105, 0.0000000000, 0.1365094334, -0.0000000000, -0.0000000000, -0.0000000000, 0.1472022235, 0.1964085400, 0.0000000000, 0.1450732797, 0.0750322044, 0.0248495843, 0.0000000000, 0.0000000000, -0.0000000000, -0.0000000000, 0.1876117736, 0.0000000000, 0.0000000000, -0.0000000000, 0.0745032802, -0.0000000000, -0.0000000000, -0.0460166074, -0.1042672545, -0.0000000000, -0.0016825512, 0.0000000000, -0.0000000000, -0.0000000000, -0.0379880704, -0.0000000000, 0.0000000000, -0.2877727747, -0.1270771325, 0.0000000000, 0.0000000000, -0.0000000000, -0.0000000000, 0.0000000000, -0.0402792282, -0.1854029894, 0.0000000000, -0.0000000000, -0.3075739443, -0.1074785441, -0.0000000000, -0.0000000000, 0.0377690010, -0.0450026616, -0.0546869449, -0.2151681930, -0.2664951980, 0.0000000000, 0.0018858877, -0.0040570437, -0.0000000000, 0.0253402162, -0.0663948879, 0.0000000000, 0.0000000000, -0.0000000000, 0.0000000000, -0.0000000000, 0.0000000000, -0.2422977835, 0.0000000000, 0.0000000000, -0.0000000000, -0.0000000000, -0.4204844236, -0.0000000000, 0.0380639695, 0.0006175073, 0.0000000000, 0.0661898777, -0.0000054445, 0.0150335347, -0.0524038598, -0.0006607600, 0.0648860037, -0.0000000000, 0.0405428782, 0.0462553650, 0.0767402202, 0.1592872888, 0.0000000000, -0.0118409870, -0.1910063177, -0.0000000000, 0.0000000000, -0.3668681383, 0.0000789220, -0.1250204742, -0.1572957486, 0.0000000000, 0.1044077799, 0.0156692956, -0.0183520410, -0.0000000000, 0.0891383290, -0.1114378199, -0.1025479212, -0.0000000000, -0.2759533525, -0.2001655996, -0.0000000000, -0.2440748811, -0.1218810752, 0.0000000000, 0.0034488770, 0.0000000000, -0.0000000000, -0.2309450805, 0.0000000000, -0.1602559984, 0.0000000000, 0.0919056088, 0.2422978729, 0.0000000000, 0.0000000000, -0.1215491816, -0.0000000000, 0.0119358283, -0.2085641026, -0.0462737679, 0.0000000000, -0.2897179425, -0.0000000000, -0.0036306090, 0.0000000000, 0.0000000000, -0.0000000000, 0.2733999193, 0.0541741960, -0.0000000000, 0.0000000000, -0.1164685041, 0.0045420243, 0.0000000000, 0.0000000000, -0.0000000000, 0.1303589940, 0.0554241389, 0.0000000000, -0.3374739587, 0.2501353621, -0.0000000000, -0.2760980427, -0.0990392640, -0.1146619394, -0.0000000000, -0.0000000000, 0.0371039957, -0.0000000000, -0.0000000000, 0.0000000000, -0.1633724570, 0.0000000000, -0.1490676403, -0.0701411590, -0.0000000000, 0.0043854266, -0.0000000000, 0.0000000000, -0.0000000000, 0.0000000000, 0.0000000000, 0.0083175628, -0.0000000000, -0.0000000000, 0.2395648360, 0.0000000000, 0.0077491431, -0.0000000000, -0.0000000000, 0.0820725933, -0.0000000000, -0.0000000000, -0.0000000000, -0.1141420007, -0.3730985820, 0.2613042891, 0.0000000000, 0.1009595618, 0.0462470390, 0.0240601785, -0.0000000000, 0.0000000000, 0.0776179135, 0.0439231284, 0.1482688785, 0.0326649658, -0.0000000000, -0.0000000000, 0.0000000000, -0.0000000000, -0.0465682521, -0.3780232072, 0.1361445785, -0.2116414905, -0.0000000000, -0.0000000000, -0.0069502466, -0.0000000000, -0.0000000000, -0.0000000000, -0.0000000000, 0.1778627336, 0.0000000000, 0.0000000000, -0.0000000000, -0.2478587776, -0.1629353613, -0.1202944517, 0.2122513503, -0.0000000000, 0.0129986573, -0.0392354652, -0.0000000000, 0.0000000000, 0.0942331851, -0.0000000000, -0.0000000000, 0.0000000000, -0.0756010339, -0.0000000000, 0.0000000000, 0.2054541260, -0.0000000000, -0.0274742357, -0.0000000000, 0.0849377811, 0.0000000000, 0.0000000000, -0.0300593060, -0.0000000000, 0.0000000000, -0.0325588398, 0.1683674604, -0.1930042207, 0.1073631868, 0.0000000000, -0.0000000000, 0.0000000000, 0.0107989283, 0.0000000000, 0.0000000000, -0.0000000000, 0.0009254566, 0.1233818531, 0.0524485782, 0.0000000000, 0.0000000000, 0.0853270963, -0.1961356997, -0.1208919734, 0.0000000000, -0.0599210486, -0.0040729218, -0.0000000000, -0.2602550089, 0.0000000000, -0.0000000000, -0.0000000000, -0.1202921495, -0.1759159416, 0.0000000000, 0.0000000000, 0.0000000000, 0.0000000000, 0.2007798702, -0.1226995885, -0.0000000000, -0.1038392484, -0.0000000000, 0.0298819020, -0.0000000000, -0.0270277131, -0.0000000000, -0.1101296842, -0.0000000000, 0.0000000000, -0.0000000000, 0.0000000000, 0.0000000000, -0.1327909231, -0.0000000000, -0.0000000000, 0.0477155037, -0.0297586806, -0.2298837006, -0.0830084607, -0.0000000000, -0.0919380635, -0.0000000000, -0.0000000000, 0.0807078630, 0.2366103977, -0.0185968988, -0.0532819852, 0.0187638216, 0.0000000000, 0.0605056621, -0.0000000000, 0.0000000000, -0.1308945864, 0.0094446931, -0.0000000000, 0.0000000000, 0.0000000000, 0.1440895945, -0.0000000000, -0.1895494610, -0.0000000000, 0.0000000000, 0.0000000000, 0.0975865349, 0.0000000000, -0.0874101073, -0.0009292517, 0.0408096388, 0.2014325112, 0.0835059956, 0.0287229959, -0.0000000000, -0.0186380241, -0.2046639621, 0.0000000000, -0.1209368631, -0.0000000000, -0.0000000000, 0.0021409490, 0.2030564100, -0.0000000000, 0.0479721278, -0.0069976021, 0.0000000000, -0.0105704432, 0.0000000000, -0.0000000000, 0.0000000000, -0.0000000000, -0.0000000000, -0.0537930578, -0.0000000000, -0.1710245907, -0.2371035665, -0.0000000000, 0.0000000000, 0.0666333809, 0.0000000000, 0.1023035720, -0.0000000000, 0.0941728801, -0.1550240368, -0.2589931190, -0.0000000000, 0.0000000000, -0.0000000000, 0.0034106285, -0.1083379388, -0.0000000000, 0.0000000000, 0.0000000000, -0.0495054908, 0.0000000000, -0.2511183023, 0.0000000000, 0.0000000000, -0.0000000000, -0.0471771844, 0.0000000000, 0.0350489654, -0.0000000000, -0.1389461160, -0.0321283080, 0.0000000000, 0.0000000000, -0.0798096284, 0.0000000000, 0.3093706965, 0.2841052711, -0.0575845987, 0.0000000000, -0.0126125216, -0.1030785367, -0.0000000000, 0.0000000000, 0.0000000000, -0.0076133702, -0.1453457922, 0.0000000000, -0.0635046437, -0.0760486200, 0.0000000000, -0.0031727515, -0.0306167938, -0.1946269721, 0.2611401379, -0.0000000000, 0.0000000000, 0.1325934678, -0.0000000000, -0.0468409583, 0.0000000000, -0.0000000000, 0.0000000000, 0.0000000000, 0.0000000000, -0.0000000000, -0.0439832509, -0.2575153410, 0.0000000000, -0.0000000000, -0.0000000000, -0.0414597280, 0.0000000000, -0.0000000000, 0.0552240722, 0.0224899165, 0.0689552128, -0.0000000000, 0.2236016840, -0.0993619785, -0.2327369004, -0.1992193758, 0.0347437598, -0.1779046506, -0.0000000000, -0.0000000000, 0.0000000000, 0.0000000000, 0.0000000000, 0.0000000000, 0.0000000000, -0.0000000000, 0.0000000000, 0.0000000000, -0.0000000000, 0.0704963878, 0.0000000000, -0.0000000000, 0.2744653225, 0.0988161415, -0.0000000000, -0.1107945517, -0.0761970356, -0.2035531998, -0.0092877578, -0.0000000000, 0.1338025928, -0.0000000000, 0.0000000000, 0.1114623621, -0.0000000000, -0.2224996388, -0.0097409207, 0.2607984245, -0.0000000000, -0.0000000000, 0.0000000000, 0.0000000000, 0.0000000000, 0.0000000000, -0.1186142042, 0.1158303693, -0.0000000000, 0.0000000000, -0.1556658000, -0.0000000000, -0.1698406041, -0.0000000000, 0.0000000000, -0.0000000000, -0.0000000000, 0.0530534312, 0.0451917723, 0.0000000000, 0.0000000000, 0.0635704547, -0.0000000000, -0.0000000000, -0.0000000000, 0.0000000000, 0.2585503459, 0.0000000000, -0.1542156637, 0.1151464507, 0.0000000000, -0.0000000000, 0.0748456046, 0.0000000000, 0.0000000000, -0.0000000000, -0.0068219067, -0.0201411657, 0.0000000000, -0.0000000000, 0.0000000000, -0.1007963195, -0.0000000000, 0.0000000000, -0.1891835183, 0.0000000000, -0.0329946950, -0.0200546589, -0.2585289478, 0.0179921426, -0.0000000000, 0.0000000000, 0.0185965933, -0.0004447313, -0.0093304245, -0.1497794092, 0.1585654467, 0.0957832038, -0.0000000000, -0.2545823157, -0.0878538340, -0.0000000000, 0.0000000000, -0.0736439303, -0.0000000000, 0.0000000000, -0.0981755257, 0.2466410249, -0.2155310512, -0.0000000000, -0.0000000000, 0.0000000000, 0.0000000000, 0.1455463916, 0.1347784102, 0.2571555674, -0.0000000000, 0.0000000000, 0.0000000000, 0.0000000000, 0.0019090975, 0.0000000000, 0.0517407656, 0.0000000000, 0.0000000000, -0.0000000000, -0.1289948970, -0.0000000000, 0.0000000000, -0.0000000000, 0.0000000000, 0.0000000000, -0.0000000000, -0.1635325253, 0.0059899939, 0.0000000000, -0.0000000000, 0.0454977639, -0.0000000000, -0.0000000000, 0.0000000000, -0.1001504734, -0.1978403032, -0.1119493470, 0.0000000000, 0.0000000000, 0.2414973527, 0.0000000000, 0.0254070163, 0.0000000000, 0.0000000000, 0.0000000000, 0.0000000000, -0.0587301701, 0.0000000000, 0.0000000000, 0.0000000000, -0.1566206515, 0.0281060226, 0.0000000000, -0.0000000000, -0.0000000000, -0.0000000000, 0.0044845543, 0.0000000000, -0.0000000000, 0.3609096408, -0.0000000000, 0.0000000000, 0.0990283415, -0.0000000000, -0.0887344927, -0.0000000000, -0.0000000000, 0.0000000000, -0.0000000000, -0.0000000000, -0.1173921525, -0.0000000000, -0.1990751624, 0.0000000000, -0.1149938479, -0.1416514665, 0.0000000000, 0.0000000000, 0.0000000000, 0.1765717715, -0.0000000000, -0.0302666891, -0.0329426937, -0.0982333273, 0.0000000000, 0.0000000000, -0.0000000000, 0.0323239043, -0.0000000000, -0.0000000000, 0.1291612685, 0.0809580088, -0.0447398610, 0.0562451035, -0.0000000000, -0.0000000000, 0.0000000000, -0.2067676634, -0.0000000000, 0.0000000000, -0.0373275243, 0.0000000000, -0.0000000000, -0.0000000000, 0.0000000000, 0.0849824697, -0.0000000000, 0.0549977832, 0.0000000000, -0.1056168824, -0.0529519729, -0.3800682724, 0.0374432914, -0.0933929831, -0.0000000000, -0.0065848492, -0.1987176836, -0.4471817315, -0.0901465341, -0.1335900128, -0.0366341732, -0.0648494512, -0.0208646432, -0.0000000000, 0.0069876336, -0.2055986673, -0.1709927171, 0.1315807402, -0.1211856380, -0.0053157141, 0.0000000000, 0.0000000000, -0.0376381725, -0.0980538800, -0.1386992931, -0.0080531361, 0.1385534555, 0.1856151819, 0.0773660839, 0.0000000000, -0.0000000000, 0.0755939037, -0.0000000000, 0.2716301978, -0.0000000000, 0.0000000000, 0.0000000000, -0.0000000000, 0.1413602084, 0.0936488658, 0.0000000000, 0.2745721340, 0.1536685377, 0.1180957183, -0.0000000000, -0.0000000000, 0.4451546073, 0.0817536861, -0.1218316406, -0.1923556626, -0.1120793000, 0.1653415561, -0.2782750130, -0.0911934227, 0.0588508099, -0.4187885821, -0.0000000000, 0.1851415634, 0.0017714833, -0.0000000000, 0.1796850115, 0.0147975339, 0.0556043983, -0.0000000000, 0.1744207442, 0.0000000000, -0.0249866191, -0.2498738021, -0.0000000000, -0.0865602493, -0.0637860447, -0.2432028055, 0.0196248852, 0.0000000000, -0.0000000000, 0.0000000000, -0.0000000000, 0.0550653525, -0.0576165020, -0.0871586800, -0.0000000000, 0.0000000000, -0.0000000000, -0.2127876878, 0.2800415456, -0.0000000000, 0.0746345520, -0.0000000000, -0.0876975581, -0.0000000000, -0.0000000000, 0.1455767751, -0.0000000000, 0.0231056735, -0.0662016720, -0.0000000000, -0.2049986273, -0.0000000000, 0.0000000000, -0.0000000000, 0.0830363110, -0.0033277841, -0.0000000000, 0.2931621969, 0.0000000000, 0.0038309854, -0.3246487677, -0.0583346412, -0.0850514024, -0.0000000000, -0.2611567974, 0.1506498605, 0.0785691515, 0.0000000000, -0.0000000000, -0.0000000000, -0.0000000000, 0.1628168672, 0.1417755634, 0.1650911272, 0.1138337329, -0.0000000000, -0.0000000000, -0.1008574814, -0.1460795701, 0.0000000000, 0.0000000000, -0.0997320041, -0.0835721493, 0.0000000000, 0.2594681680, -0.0243966877, 0.0000000000, 0.0000000000, -0.0193291809, -0.0000000000, 0.0583264343, -0.0000000000, -0.1535122842, 0.0499451160, 0.0009855513, -0.1403944343, 0.0000000000, 0.0000000000, -0.0000000000, 0.0000000000, -0.0000000000, -0.1550707519, 0.2988120615, 0.2165849805, 0.0785686150, -0.0000000000, -0.0972746089, 0.0000000000, 0.1511534154, -0.0000000000, -0.0000000000, 0.1021181643, -0.0631242841, -0.0547936931, 0.0073807081, 0.0379269682, -0.1020462587, 0.1375639588, -0.0099507235, -0.0000000000, -0.0284504555, 0.0000000000, 0.1692236364, -0.0383599401, 0.0000000000, -0.0935633853, 0.0223487839, -0.2209127098, -0.1097789332, 0.0245236196, -0.0000000000, 0.0000000000, -0.0000000000, -0.0000000000, -0.0000000000, 0.0968681276, -0.0110892802, -0.0000000000, 0.0000000000, -0.0000000000, -0.1366709918, -0.0000000000, -0.2297740430, 0.0594521277, 0.1609614789, 0.1121892929, 0.4301686883, 0.1435644478, -0.3096517324, -0.0000000000, 0.2555786967, 0.0000000000, -0.0000000000, 0.2217485607, -0.0418363698, 0.0000000000, -0.0402856730, -0.0019116553, -0.0000000000, -0.0000000000, -0.0000000000, -0.1292304248, -0.1378856599, 0.0272102747, -0.2655707598, -0.0000000000, -0.0000000000, -0.0000000000, -0.0000000000, -0.0000000000, -0.1393806189, 0.2227165997, -0.0337172113, -0.1557140499, 0.3259160519, 0.0000000000, -0.0000000000, -0.0505355783, 0.0038536221, -0.0190599449, 0.0000000000, -0.0000000000, 0.2264344990, 0.0343044959, -0.0000000000, -0.0000000000, -0.0985281691, -0.2221063375, 0.0000000000, 0.2957406640, -0.0000000000, -0.0000000000, 0.0000000000, -0.0099580418, -0.0562142394, 0.0000000000, -0.3100926280, 0.0000000000, 0.0000000000, -0.0662691295, -0.1998548359, -0.0000000000, -0.1546549648, 0.0752229244, 0.2259987146, -0.0000000000, 0.0000000000, -0.3033065200, 0.2024047077, -0.0000000000, -0.3468119204, -0.0000000000, -0.0677445307, -0.1575343609, -0.1155392602, -0.0711437166, 0.0000000000, -0.0196446981, -0.2250539213, -0.0000000000, 0.1615907252, 0.0521267243, 0.2862110734, -0.1759413183, -0.0000000000, -0.3420899510, 0.1785109937, -0.1583558917, 0.0000000000, -0.2571521401, 0.0000000000, 0.1388662606, -0.0001787151, 0.2393764257, -0.1182217672, -0.2404084653, -0.1511950642, -0.1873283535, -0.2346179485, 0.0000000000, 0.0000000000, 0.0000000000, -0.0784476176, -0.0157279763, -0.0000000000, 0.0000000000, -0.0000000000, -0.1078019440, 0.0000000000, 0.1080547050, -0.2232688069, -0.2329428941, 0.1427081376, 0.0000000000, -0.1620663851, -0.0344621725, 0.0000000000, 0.0760143027, 0.0585799851, 0.0746214464, 0.0000000000, -0.0000000000, 0.0000000000, 0.2510091662, -0.1355357766, 0.0459040925, -0.1355217397, -0.1805874258, -0.0000000000, 0.0068958676, -0.0541988760, 0.3150100410, 0.0000000000, -0.0000000000, -0.0884046480, -0.0000000000, 0.0000000000, -0.1949159950, -0.0051059234, 0.0000000000, -0.2842428982, 0.0000000000, -0.1421806365, 0.1202324629, 0.0523687564, -0.0000000000, 0.0000000000, 0.0000000000, -0.0000000000, -0.0000000000, 0.0091307461, 0.2060600370, 0.0000000000, 0.0000000000, -0.0127565563, 0.0000000000, -0.0303878635, -0.0000000000, -0.1602653265, -0.1451505870, 0.0000000000, 0.0000000000, 0.0571978278, 0.0440740846, -0.2450226992, 0.1339713782, 0.0000000000, -0.0984340832, 0.0000000000, -0.0794153810, -0.0000000000, 0.0838354528, -0.2602933645, -0.0000000000, -0.0065537300, 0.0000000000, -0.0122432178, 0.0000000000, 0.0000000000, 0.1222819462, 0.0000000000, 0.2273198515, 0.2197203189, -0.0000000000, -0.0000000000, 0.0000000000, 0.0000000000, 0.0000000000, 0.0000000000, 0.0743385628, 0.1347721219, -0.1290839016, -0.0833373070, 0.0199999847, -0.0020441159, -0.0000000000, 0.1004879102, -0.0000000000, -0.0895726159, 0.1046458408, -0.0000000000, -0.0015423723, -0.0000000000, -0.0000000000, 0.0000000000, -0.0000000000, -0.0000000000, -0.0000000000, 0.0000000000, 0.0000000000, 0.0000000000, 0.0071879975, 0.0000000000, 0.0723588765, -0.0000000000, -0.0000000000, 0.0000000000, -0.0867973045, 0.0000000000, 0.0000000000, -0.0000000000, 0.0665791929, -0.1824144274, 0.0000000000, 0.1009319723, -0.2435929328, -0.1431252658, 0.0000000000, 0.1595250219, -0.0529467762, -0.0918350741, 0.0575148501, -0.0000000000, 0.0308680851, 0.0000000000, 0.0000000000, -0.1263685226, -0.1811052561, -0.0000000000, 0.3597441018, -0.0191106535, 0.0000000000, 0.0001974855, 0.0000000000, -0.1642737389, 0.0000000000, -0.0000000000, 0.0437051617, -0.2315512896, -0.0000000000, -0.0000000000, -0.2848311365, 0.1860215366, 0.0000000000, -0.0070939148, -0.0845448375, 0.0000000000, 0.0714055374, -0.1951357722, -0.2823391855, -0.0000000000, -0.0000000000, 0.2172105163, -0.0043535996, -0.0000000000, 0.1731386334, -0.0000000000, 0.0975037292, 0.0000000000, 0.0727445781, 0.0000000000, -0.1101798415, -0.0000000000, 0.0000000000, -0.0000000000, 0.0000000000, 0.0000000000, 0.0788894445, 0.0000000000, 0.0000000000, -0.1768626422, -0.0000000000, 0.0000000000, 0.1342814118, 0.0000000000, 0.0000000000, -0.0123571539, -0.0305535067, 0.1082623079, -0.1103145778, -0.0000000000, -0.0000000000, -0.0008520523, -0.2695993483, 0.0000000000, -0.0665599853, 0.0000000000, 0.1146059185, -0.0000000000, 0.1399989575, 0.1868632436, -0.1049888656, 0.1449375451, 0.2237002999, -0.3082675934, 0.0839960948, 0.0000000000, 0.0000000000, 0.0281685758, -0.0000000000, 0.0000000000, -0.1076402292, -0.1875799745, 0.0000000000, 0.0000000000, 0.0879566818, 0.1665690243, -0.0000000000, -0.0000000000, 0.0000000000, 0.0000000000, 0.0000000000, -0.0267033856, 0.0002830506, -0.2716936171, -0.0757030994, -0.0000000000, 0.2211438566, 0.0000000000, 0.0000000000, 0.0000000000, 0.0000000000, 0.0000000000, -0.2759196162, 0.0000000000, 0.2260942012, -0.2102826238, -0.0000000000, -0.3195970356, -0.0000000000, -0.0229311995, -0.0000000000, 0.1999027133, 0.2385189980, 0.0644353703, 0.0311169233, 0.2342754006, 0.0000000000, 0.0000000000, -0.2235691547, -0.0000000000, 0.1381796300, 0.1096258238, -0.2596309185, 0.0000000000, -0.0000000000, -0.0719918534, -0.0836952254, -0.1408115476, -0.0000000000, -0.0000000000, -0.0119092278, 0.0000000000, -0.1987451166, 0.2308970094, -0.1880414486, 0.0000000000, -0.0257437676, 0.0000000000, -0.0804444030, -0.1544815600, 0.0000000000, -0.2704240382, 0.0168107003, 0.0023155340, -0.0000000000, 0.0485696606, 0.1780846268, 0.0000000000, -0.0000000000, -0.0000000000, 0.0000000000, -0.1126748100, -0.0000000000, -0.0000000000, 0.0000000000, 0.0000000000, -0.1221278459, 0.1269371063, 0.0989075154, 0.0000000000, 0.0000000000, 0.1399397850, -0.2076423019, -0.1425727904, 0.0000000000, 0.0343230180, 0.0000000000, 0.0000000000, -0.0000000000, 0.1372239441, -0.0000000000, -0.1818452328, 0.0000000000, 0.0054252464, -0.0000000000, 0.1557677388, 0.0033563757, -0.0000000000, 0.0000000000, -0.0000000000, 0.1381545812, 0.0007598248, -0.0000000000, -0.2994952500, -0.0000000000, -0.0000000000, -0.1939702183, 0.0000000000, -0.0000000000, 0.1675055176, -0.0000000000, -0.0000000000, 0.0366888084, -0.0000000000, 0.2306623757, 0.0000000000, -0.0000000000, 0.0000000000, 0.0000000000, 0.0197513252, -0.0173363239, 0.2812815607, -0.0506033897, 0.0860744640, -0.0000000000, 0.0000000000, 0.0635682270, -0.0000000000, -0.0000000000, 0.0997005850, -0.0000000000, 0.0000000000, -0.0000000000, 0.0000000000, 0.1134396344, 0.0000000000, 0.0541229509, 0.0818291008, -0.1415576637, 0.0000000000, 0.0000000000, 0.1230216771, -0.0945296809, -0.0000000000, 0.0000000000, -0.0000000000, -0.0000000000, -0.2056957483, 0.2139597088, -0.1156707555, -0.0000000000, 0.1229913980, -0.0840158388, -0.0836237818, 0.0000000000, -0.0815773904, -0.0006089969, 0.1911713034, 0.2159340382, -0.1859860271, -0.1106755733, -0.0000000000, 0.0000000000, -0.0015758086, 0.0000000000, -0.0000000000, 0.0000000000, -0.0718033239, -0.1990381777, 0.0000000000, -0.0174793210, -0.0325413086, -0.1190998182, 0.0000000000, 0.0000000000, -0.1999684721, -0.0679903775, -0.0531919040, -0.0000000000, -0.0000000000, -0.2820489705, -0.0000000000, 0.0108833751, 0.0105390819, 0.0000000000, 0.0707730278, -0.0000000000, -0.3111816943, -0.0000000000, 0.2153399438, 0.0848899186, 0.0022989095, -0.0000000000, -0.0601494014, -0.2689794004, 0.2104176581, -0.0624676235, 0.0869697556, -0.0419996381, -0.0162160434, -0.0000000000, 0.0000000000, -0.0000000000, -0.1920708716, -0.1214088798, -0.0000000000, 0.1868502349, -0.0000000000, 0.0000000000, 0.0000000000, 0.0000000000, -0.0018321068, -0.0000000000, -0.0000000000, 0.0000000000, 0.0000000000, -0.1905538738, 0.0000000000, 0.2745810449, 0.0000000000, -0.0000000000, 0.0000000000, 0.0000000000, -0.0000000000, 0.0723988116, 0.0000000000, -0.1416183114, 0.1080642119, 0.0000000000, -0.1249891967, -0.0000000000, -0.1949694604, -0.1018159017, 0.0000000000, 0.0000000000, 0.0000000000, 0.0420303009, 0.1336791664, 0.0381048210, 0.1606681645, 0.1072567552, 0.0000000000, -0.0426519997, -0.0000000000, 0.2097427249, -0.0000000000, 0.0000000000, -0.2697449327, 0.0233422164, 0.0014766039, 0.0000000000, 0.2330410779, -0.0000000000, 0.0000000000, 0.1146075204, 0.0021320733, 0.0000000000, 0.0963060260, 0.0000000000, -0.0000000000, -0.0000000000, 0.0000000000, -0.1807793379, 0.0000000000, -0.0170909390, 0.0236524437, 0.0000000000, 0.0000000000, -0.0000000000, -0.0605143607, -0.0563313067, 0.2312854528, -0.1723743379, 0.0000000000, -0.0000000000, 0.0000000000, 0.0000000000, -0.0000000000, 0.0000000000, -0.0000000000, 0.0000000000, -0.1697907895, 0.0000000000, 0.3444200754, 0.0005173841, 0.0000000000, 0.0049329898, 0.0000000000, 0.2343107164, -0.0037176043, 0.2003477812, 0.0000000000, 0.0028988752, 0.0000000000, 0.0122658359, 0.0000000000, 0.2358748615, 0.1885987222, 0.1340492815, 0.1125238687, -0.0000000000, 0.0013178500, 0.0000000000, 0.2150602788, -0.0000000000, -0.0000000000, -0.1947536170, 0.0223074108, -0.0000000000, 0.1114761457, -0.2474652380, -0.0000000000, 0.0000000000, -0.0000000000, -0.0852279812, -0.1009567603, -0.0000000000, 0.2318981141, -0.2463079542, 0.0349230133, -0.0736994818, 0.1225860268, -0.0876737088, -0.1608982682, 0.0000000000, 0.2882662117, 0.1766915023, -0.1416119337, -0.0000000000, -0.0000000000, -0.0022075949, -0.0625199452, 0.0000000000, -0.1476998478, -0.1174876466, -0.0000000000, -0.0379006676, -0.2615557909, 0.0353547111, 0.1182924584, 0.1128377542, 0.0000000000, 0.0000000000, -0.0000000000, 0.0355609916, 0.1107386351, 0.2874649465, -0.0000000000, 0.2175789475, 0.0000000000, -0.1903817803, -0.1175130606, 0.0000000000, -0.2215628177, -0.1611463279, -0.0000000000, 0.0380776785, -0.0000000000, -0.0000000000, 0.0000000000, 0.1793196946, -0.0648020133, 0.0000000000, 0.0000000000, 0.1792059541, -0.2003790587, -0.0000000000, -0.1830601394, -0.2436396033, 0.0000000000, -0.0964936391, 0.0000000000, 0.0000000000, -0.0000000000, -0.1668884754, 0.0809390992, 0.0000000000, -0.0000000000, -0.1199587137, 0.0000000000, -0.0012020960, -0.0000000000, 0.0119583188, -0.0000000000, 0.0000000000, 0.1176379994, 0.0054803002, 0.0033878924, 0.0000000000, -0.0000000000, -0.2577030361, -0.1837989390, -0.1494835019, -0.1526015103, -0.0000000000, -0.0000000000, -0.1781649292, -0.0969635174, -0.0000000000, -0.0000000000, -0.0000000000, 0.0000000000, -0.0000000000, -0.0150806643, -0.1948538125, -0.0000000000, -0.0000000000, -0.0000000000, 0.2447056472, 0.1055373922, -0.0000000000, -0.0165149495, -0.0568582639, -0.0000000000, -0.0000000000, -0.0000000000, 0.1544441432, -0.0983223245, -0.0268914402, 0.0000000000, -0.0645406842, 0.0000000000, -0.0000000000, 0.0000000000, -0.2325180620, -0.0000000000, -0.0002013649, 0.0000000000, 0.0000000000, -0.0000000000, 0.1611473262, 0.0000000000, 0.0000000000, -0.0574780777, -0.0000000000, 0.1112764701, 0.0099755917, -0.0000000000, 0.0000000000, 0.0036111737, -0.1229335889, 0.0908278823, -0.1246428713, -0.0000000000, -0.0000000000, -0.0000000000, -0.2009882480, -0.1414193958, -0.4187913835, -0.0187677927, 0.0000000000, 0.0000000000, -0.0000000000, -0.2679794431, -0.0000000000, 0.0445395447, 0.0106484815, 0.0847340077, 0.0000000000, 0.0812009797, 0.0000000000, -0.0000000000, 0.1306167394, -0.1050540134, -0.2567787766, -0.0058534695, -0.2610387802, -0.2740018368, 0.0000000000, -0.3756327629, 0.0056681624, -0.0000000000, 0.0000000000, 0.0110700596, -0.1789071709, -0.0747522414, 0.1335809678, 0.1333472729, 0.0051105055, 0.1328266412, 0.1048050970, -0.4295113981, 0.3182304204, -0.0000000000, -0.1505171061, 0.0000000000, 0.0596588813, -0.0778134316, 0.1730347574, -0.0000000000, -0.0000000000, -0.0000000000, 0.0067321914, 0.2514493167, -0.0000000000, -0.0257390253, -0.1103810444, 0.0192214176, 0.0000000000, 0.0534762628, -0.0000000000, -0.0080400277, -0.1509114653, 0.0000000000, -0.0085230982, 0.2294150293, -0.0000000000, 0.0000000000, -0.1099704504, -0.0000000000, -0.0171323251, -0.3853556216, 0.1166436747, -0.0000000000, -0.0000000000, -0.0000000000, -0.0000000000, -0.0000000000, 0.0000000000, 0.0000000000, 0.0011417744, 0.0000000000, -0.1619036198, 0.0000000000, 0.1543546915, -0.0000000000, -0.0000000000, -0.1847715974, 0.0000000000, 0.0000000000, 0.0000000000, 0.0000000000, -0.0530249216, 0.0240234155, -0.0000000000, 0.0000000000, -0.0987364054, 0.0000000000, 0.0000000000, -0.2207577825, -0.0101835122, 0.0821368471, -0.0000000000, 0.0000000000, 0.0000000000, -0.0000000000, -0.0274153873, -0.1385287642, -0.0712311491, 0.0505168810, 0.0844797045, 0.0000000000, 0.0000000000, -0.0000000000, -0.0000000000};

#endif

#endif
