//Numpy array shape [64, 10]
//Min -0.733566284180
//Max 0.627625346184
//Number of zeros 0

#ifndef W26_H_
#define W26_H_

#ifndef __SYNTHESIS__
output_dense_weight_t w26[640];
#else
output_dense_weight_t w26[640] = {-0.1351517290, -0.3553883433, 0.4583738446, 0.2377215326, -0.1683320850, 0.1772847474, -0.5014876723, -0.0617864877, -0.5624123812, 0.3222346604, -0.5300126672, -0.3758676648, -0.4142433107, 0.2003301531, 0.1705931872, 0.2203127742, 0.3116049170, -0.3649254143, -0.5371979475, -0.3800631166, 0.0800975189, -0.3675631583, -0.1283469498, -0.2617560029, 0.3401370049, -0.3165260255, -0.0475609042, -0.0051652789, 0.3828871846, 0.1729449183, -0.4508231878, -0.2477361560, 0.5077647567, -0.3387628496, -0.0245059840, -0.1579730660, -0.2524470985, 0.0540879965, -0.4256134927, 0.0844468921, -0.4793027639, 0.2157588601, -0.5682367086, -0.0622257553, -0.0169092640, -0.1718213558, 0.1985071450, -0.5243711472, 0.1366086006, 0.2574074268, -0.0345447659, -0.0436913073, -0.4317121208, 0.3761311471, -0.2266393751, -0.2528667748, -0.2184402645, -0.0153904427, 0.5123845935, 0.3724192381, -0.2676441967, 0.2008269280, -0.5432582498, -0.1269115955, -0.0704219788, -0.6722090840, 0.2402088940, -0.1489745378, 0.0644934624, -0.2847103775, 0.0022065479, -0.3907987475, -0.1401494741, 0.1754524559, 0.5819215775, 0.0683034286, -0.1006483510, -0.3776973486, -0.2910219431, 0.5264027119, -0.3401509821, 0.1181616709, -0.2279155403, -0.4379261732, 0.4488140047, 0.2495737225, 0.3467118144, -0.2553645670, -0.1172469705, -0.2074595541, -0.2835160792, -0.3740483522, 0.1363624334, 0.4444610476, -0.2573999465, -0.0458786041, -0.1275363415, 0.4082877040, -0.2373820692, -0.0587637350, -0.2322404385, -0.1556211263, 0.5817337036, -0.0279294662, -0.4278068542, -0.5038996935, 0.2130665332, 0.3673506677, 0.2933833897, -0.0424075425, -0.3126408458, 0.2268417478, -0.1907953173, 0.1473531127, 0.4509498179, 0.1356665939, -0.0075202081, -0.3755147755, -0.0641276687, -0.3403971791, -0.2341437489, 0.2588132024, -0.1387243122, 0.2267417014, -0.0368222967, 0.5551903844, -0.5522649884, -0.2705465555, -0.3009915054, 0.0513914451, -0.6524454951, -0.0815102905, 0.2225470841, 0.1154048964, 0.2744403481, 0.1566991657, -0.4351665676, 0.1647524536, -0.0377885550, -0.3665283918, -0.0577168763, -0.0585590601, -0.0767301545, 0.5346123576, -0.0539565645, 0.3208241761, -0.1325383484, -0.5224830508, 0.1120646670, -0.6271110177, 0.2634179294, -0.1782952100, 0.3888051510, -0.3140354455, 0.3975894153, -0.1580032557, -0.2296297252, -0.5240471363, -0.1583161056, 0.0481622666, 0.3801745474, -0.2031946331, -0.2100454718, -0.2897149026, -0.1715923697, -0.5665059090, 0.4231013954, -0.3205194771, -0.5623180866, 0.2801315188, -0.0829516426, -0.1393306851, 0.4318854213, -0.3247227967, -0.3882977068, -0.1731918752, 0.0408965237, 0.3250046968, -0.5318531394, 0.4040527642, -0.1844017655, 0.0685380921, 0.2656666934, -0.4541654289, 0.4586613774, 0.3824121654, 0.1607270688, 0.0357652754, -0.7035439610, -0.2015439868, 0.4632678330, 0.3099925220, -0.4237781763, 0.1747517735, 0.2963584661, -0.1819901317, -0.0912268385, -0.2920443416, -0.0032205144, -0.1179705486, -0.0391540863, -0.1089905128, -0.0187559891, 0.2399158776, -0.4824703038, 0.4458263218, 0.0406992584, -0.2642845809, 0.1019319668, 0.2363333255, -0.2627252936, 0.5511422753, -0.0620710477, -0.2628219724, -0.6029152274, -0.1168529689, -0.1253827214, 0.2605792880, 0.0314667188, -0.0712579116, -0.6155570745, -0.1752308905, -0.4378003478, 0.4336817563, -0.4495280981, 0.5065522790, 0.0188745633, -0.2453871816, 0.0199065059, 0.4900693893, 0.3664323092, 0.1528955698, -0.2935612202, 0.2458999455, -0.3471762538, -0.0138949212, -0.3276547790, 0.3090009987, -0.3636913002, -0.3329969347, 0.2453558743, -0.1570373327, -0.2835620642, 0.1967650354, 0.5697770119, -0.1608865708, -0.1877871752, -0.2399995029, 0.0095296744, -0.3751679659, 0.1083692908, 0.0282220505, 0.5468588471, -0.2356611788, -0.0882207602, -0.2556521297, -0.4126791954, 0.0957011580, -0.1801258922, -0.6637217999, -0.2787351012, 0.5818467140, -0.1110024005, -0.3380275667, -0.3626008630, -0.0461678319, -0.2500182390, -0.2280584723, -0.2289598435, -0.1567918807, -0.2469409704, -0.4005688727, -0.1456766725, 0.1105745658, -0.5816739202, -0.0456491075, 0.3922856152, -0.6219686866, 0.4811674356, -0.1874718666, 0.3859977722, -0.2178727388, -0.3537493944, -0.5017914772, -0.2410850674, 0.4757577777, 0.0856181458, -0.2633711696, 0.3379746079, -0.0501642711, 0.4988577366, 0.3193977177, 0.1817825288, 0.0135550667, -0.4158282876, -0.3128862083, -0.4235750735, -0.4656660557, 0.2876368761, 0.0085597048, 0.5056979060, 0.0687594786, -0.3624370098, -0.0172325335, -0.5612557530, 0.0827601328, 0.3208502829, 0.1847281754, -0.3226513267, -0.2140509784, -0.1745032668, 0.0683223978, -0.3836424053, 0.5081205964, 0.1208605245, 0.3565406203, -0.0663459226, -0.0106334751, 0.1337790936, -0.1624981612, -0.3498160243, -0.0057224864, 0.2932922840, 0.0785343647, 0.4962165952, -0.0222949833, -0.0885611102, -0.0979925245, 0.6276253462, 0.0844189599, 0.0494778454, 0.2311459333, 0.4731500149, 0.3858718276, -0.2312396765, -0.1010019705, -0.5394468904, 0.0946709365, 0.0641761199, 0.0719155446, -0.0046174894, 0.4934307933, -0.2410801202, 0.3700155616, -0.1907829940, -0.2143408060, -0.3365409672, -0.2200390100, 0.0020800501, -0.0541963167, -0.0708428025, 0.5256730318, -0.0435104556, -0.1742686927, 0.2982716858, -0.4458073676, 0.1805982590, -0.0480183326, 0.1284163296, -0.1377276331, 0.4974499643, 0.2452511042, 0.1741127968, -0.3446159959, -0.4345936775, 0.1152721196, 0.2496765405, -0.1402578205, -0.4480674267, 0.1874081194, -0.0810002610, -0.3933072686, 0.3158878386, 0.4436926246, -0.1100389808, -0.2257352769, 0.1985142082, -0.2516306639, -0.2396087945, -0.1834796518, 0.3067464828, -0.2764135897, -0.0754694194, -0.0269808900, -0.3258386552, -0.2989535928, 0.1156217009, 0.4387137890, 0.1218508482, -0.6320294142, 0.1279219836, -0.0810354352, 0.1613220572, 0.4521370530, -0.1900618374, -0.0445924625, 0.4397778511, 0.3524079919, -0.2153394520, -0.4054101706, 0.1941963881, 0.1026808247, 0.1787958741, -0.3698124588, 0.0822579488, -0.2284160852, -0.5972737670, 0.6231860518, -0.1584303230, -0.1572301239, 0.0716223791, -0.0877701566, -0.4795258939, -0.1581017077, 0.3483721316, -0.3260700107, 0.4601617157, -0.2489352971, 0.3958115578, 0.3558579385, 0.1887502968, 0.2038265765, -0.3639536500, -0.3796617389, 0.2862254977, -0.3796533942, -0.3315428197, 0.3546575308, -0.3231667876, -0.2259943932, 0.2884165347, 0.1695428640, 0.1280638576, -0.2460415661, 0.4911673069, 0.1628163755, -0.2900855243, -0.3465668857, -0.0710941777, 0.3853540123, -0.2211358547, 0.0265293587, -0.3452999592, -0.3547714055, -0.4390540123, 0.1947546154, -0.0686152801, 0.5055629611, -0.1713830382, -0.0251970813, -0.2899062634, -0.2137349993, -0.1354871541, 0.4965178370, 0.0049786842, -0.6727005243, 0.0140057290, 0.5623162985, -0.3535473645, -0.4822580516, -0.4241882861, 0.1998202205, 0.1243421510, -0.0566181205, -0.3958229125, 0.4346471727, 0.2189410031, 0.3031768799, -0.0222761314, -0.4048191905, 0.0643680468, 0.3513031602, 0.4760854840, 0.0923671424, -0.3971486390, 0.3198204041, 0.1999295503, -0.2572467923, 0.1766452342, -0.0124843726, 0.5179152489, -0.2570517957, -0.1796650290, -0.0238696337, -0.3033066392, -0.0150138643, -0.0941090286, 0.1268732548, -0.1144990474, 0.4889226258, 0.2855085433, -0.2004327625, 0.2926673591, -0.1483101249, 0.2019433528, -0.4271305501, 0.1272354573, 0.0125549007, 0.1725103408, -0.7335662842, -0.2657688856, -0.3633888364, -0.1539215297, -0.2330826521, 0.0499128513, 0.3647190034, -0.2375132293, 0.5985436440, -0.4561069906, 0.1564597040, 0.1732783318, 0.2977735400, -0.2195061147, 0.0473444387, 0.5005565286, -0.3816723526, -0.0327203311, 0.0805285126, 0.0477558337, 0.0561346114, -0.1116756201, -0.3515942991, 0.1309992671, 0.2388885915, 0.0126748057, 0.5073037744, 0.2986831069, -0.6944669485, -0.2576738298, -0.3307490051, -0.2310051620, 0.1516381055, 0.0360832699, -0.5808463097, -0.0432648882, -0.1889668852, 0.4575685263, 0.2230761796, 0.5857203007, -0.2332836241, 0.2381731719, 0.1682006717, -0.4544039965, -0.1812233329, 0.3691783547, -0.1391041428, -0.3047201037, 0.1191955283, 0.3006848693, -0.0334764719, -0.6471990943, -0.4334327877, 0.1052226201, 0.3183874488, -0.1783684939, 0.5152412653, 0.1738885194, -0.3011811674, 0.3013686240, -0.2145793587, -0.2429997623, 0.0954488143, 0.4509179890, -0.0206305776, 0.1634222120, -0.1685856134, 0.1176830679, 0.0471395217, -0.6051046252, -0.1737693399, -0.0920915455, -0.2618404925, -0.4318956137, -0.0766847804, -0.0182869080, 0.2434773892, 0.0796615109, 0.0634614900, 0.3164501488, -0.1744074523, 0.2250936329, 0.0845117271, 0.0080653587, 0.0361329839, -0.3415477574, -0.2531300187, -0.2183418870, -0.2406908721, 0.1332120895, 0.5069189668, -0.5315154195, 0.2858046591, 0.3313209116, -0.2903954387, -0.3169187903, -0.0396776833, -0.3662280440, -0.1078349203, -0.6071106791, -0.4564204216, -0.0619232096, 0.1321774125, -0.4001885653, -0.1919710040, 0.0834728330, -0.1384362280, -0.1924698651, 0.4514347911, 0.0462846607, 0.5584360957, -0.4016512036, -0.3233173788, 0.5167600513, -0.2505826652, 0.0658678934, 0.1062835604, -0.2483748794, -0.3818140626, 0.3082694709, 0.1842596382, -0.2788676620, 0.3552226424, 0.1094813719, 0.2798050940, -0.3567606807, 0.0160407573, -0.0905963928, 0.3734645247, -0.2998091877, 0.0416733809, 0.1948852092, -0.2908917964, 0.2374046892, -0.4137695134, -0.2988271415, -0.3105966449, 0.0397665203, -0.3858348429, 0.2773449719, 0.1484910995};

#endif

#endif
