//Numpy array shape [3, 3, 16, 16]
//Min -0.368778318167
//Max 0.320991218090
//Number of zeros 1152

#ifndef W7_H_
#define W7_H_

#ifndef __SYNTHESIS__
conv_1_weight_t w7[2304];
#else
conv_1_weight_t w7[2304] = {-0.1135321856, -0.0000000000, 0.0000000000, 0.0895040184, -0.0000000000, 0.0562064797, -0.0000000000, -0.0349595845, -0.0000000000, -0.0800095648, 0.0000000000, 0.0169668645, 0.0129270125, 0.0687801167, -0.0000000000, -0.0688982978, 0.0002356859, 0.0000000000, 0.0000000000, 0.1001868621, 0.0002534050, -0.0000000000, 0.0000000000, 0.0000000000, -0.1315667927, -0.0000000000, 0.0000000000, 0.0000000000, -0.0535181835, -0.0000000000, -0.0000000000, -0.0000000000, -0.0000000000, -0.0000000000, -0.0000000000, -0.1900821626, 0.0000000000, 0.0000000000, 0.1009572521, 0.0000000000, 0.1338218153, 0.0000000000, 0.0269199386, -0.1041513085, 0.0000000000, 0.0047759870, 0.0000000000, 0.0000000000, -0.1772607267, -0.1255042255, 0.0000000000, -0.1167888716, 0.0903558061, -0.0261998624, 0.0647268966, 0.0000000000, -0.0616988204, -0.0000000000, 0.0000000000, 0.0000000000, -0.1636226177, 0.0000000000, 0.0000000000, -0.0000000000, 0.0263612866, -0.2707478702, 0.0000000000, 0.0748663619, -0.0000000000, 0.0000000000, 0.0000000000, -0.1156134009, -0.1366749257, -0.1123510972, 0.0000000000, 0.0000000000, -0.0645576715, -0.2630643845, 0.0000000000, -0.0000000000, -0.0000000000, -0.0000000000, -0.0000000000, 0.0259264018, -0.0000000000, -0.1287870109, 0.0960779637, 0.0000000000, 0.0000000000, -0.0187566541, 0.0000000000, -0.1860547364, 0.0000000000, 0.0634029731, -0.0426518433, 0.0000000000, 0.0000000000, -0.0000000000, 0.0000000000, 0.0844925717, -0.0000000000, -0.0000000000, 0.0473997258, 0.0444750153, -0.1133223027, 0.1396940798, 0.0000000000, -0.0081326272, 0.0000000000, -0.0057730232, -0.0000000000, -0.0127136605, -0.0000000000, -0.0869426802, 0.0000000000, 0.0000000000, 0.0619776323, -0.0000000000, 0.0000000000, -0.0495368727, 0.0000000000, -0.0000000000, 0.0000000000, -0.0057325964, 0.0712778419, -0.0000000000, 0.0000000000, -0.0000000000, 0.0891694278, 0.0164420605, -0.0053460123, -0.1050940901, -0.0000000000, -0.0000000000, 0.0000000000, 0.0000000000, -0.0000000000, -0.0000000000, 0.0000000000, -0.1055411175, -0.0000000000, -0.0698347390, 0.0000000000, 0.1075856537, -0.0000000000, -0.0000000000, 0.1889062077, 0.0000000000, -0.0000000000, 0.0000000000, 0.1150762588, 0.0621545352, -0.1485069394, 0.1977735460, 0.0000000000, 0.0679813698, 0.0866024718, -0.0000000000, 0.0000000000, -0.0000000000, 0.0000000000, 0.0678538680, -0.0368563198, -0.1100609526, 0.0000000000, -0.1444583535, -0.1429727823, 0.0000000000, -0.0000000000, 0.0000000000, -0.0000000000, -0.0000000000, -0.0944386274, -0.2693598568, 0.0000000000, -0.0220618714, 0.0000000000, -0.0000000000, -0.0000000000, 0.1487112045, 0.0000000000, -0.0722459853, -0.0000000000, -0.0000000000, -0.0000000000, -0.0000000000, -0.0000000000, 0.0000000000, -0.0000000000, 0.0000000000, 0.0000000000, -0.0000000000, 0.0367829055, -0.0000000000, -0.0000000000, 0.2329602093, 0.0000000000, -0.0000000000, -0.2926015258, -0.0000000000, 0.0555489734, 0.0000000000, 0.0484546684, -0.0000000000, -0.0000000000, 0.0000000000, -0.0000000000, -0.0000000000, 0.0806756541, -0.0000000000, -0.0809891522, -0.0503322668, -0.0000000000, -0.0000000000, 0.0000000000, 0.0000000000, 0.0000000000, 0.0000000000, 0.0866119936, -0.1381871551, 0.1170540228, 0.0419422649, 0.0000000000, -0.0169020034, -0.0000000000, -0.1683084965, -0.3271619380, -0.0000000000, 0.0000000000, 0.0000000000, -0.0000000000, -0.0000000000, 0.0480951406, -0.0000000000, -0.0000000000, 0.0532379523, 0.0000000000, 0.1500709504, 0.0000000000, -0.0000000000, 0.0589363128, -0.0000000000, -0.0447388850, -0.0989974737, 0.1558819115, 0.0000000000, 0.1093338728, 0.0000000000, -0.2128361315, -0.0219448172, -0.0483678207, -0.0215484425, -0.0436162613, 0.1472583711, -0.0000000000, -0.0000000000, -0.0890769362, 0.0000000000, 0.0000000000, -0.0557235666, -0.0000000000, -0.0000000000, -0.0258758683, -0.0831595361, -0.0000000000, -0.0000000000, 0.0000000000, 0.0000000000, -0.0000000000, 0.0000000000, 0.0488773622, -0.0000000000, 0.0776849389, 0.0000000000, 0.0343600623, 0.0216583349, 0.0113543933, -0.0000000000, 0.0000000000, -0.0378506742, 0.1701600850, -0.0959527716, 0.0000000000, 0.0000000000, -0.0000000000, -0.0737161636, -0.1140648499, 0.1618386209, -0.0000000000, -0.0000000000, -0.0000000000, -0.0000000000, 0.0000000000, 0.0976300612, -0.0000000000, -0.0000000000, -0.0000000000, 0.0323031247, -0.0000000000, -0.0742956400, 0.0000000000, -0.0000000000, 0.0000000000, 0.0000000000, -0.0277725141, 0.0000000000, 0.0808905140, 0.0000000000, -0.0000000000, 0.0206879508, 0.0726083443, -0.1081991270, -0.0614488870, -0.0000000000, -0.1053728759, -0.1023541093, -0.0108866254, 0.0000000000, -0.0830247924, -0.1530324072, 0.0832004547, 0.0000000000, -0.1156366765, -0.1567695141, 0.0679906905, -0.0000000000, 0.1021772772, 0.0000000000, 0.1463323236, -0.2712613940, 0.0000000000, 0.0000000000, -0.1749804616, -0.0722386613, -0.0786282942, -0.0000000000, -0.0000000000, 0.0297418740, -0.0396978930, -0.0000000000, -0.0538100004, -0.0000000000, -0.0999269038, 0.0000000000, -0.0000000000, 0.0863751471, -0.0000000000, -0.0000000000, 0.1248170733, 0.0759999529, 0.0991806537, -0.0990014076, 0.0000000000, 0.0000000000, 0.0000000000, 0.0000000000, 0.1187115014, -0.0000000000, -0.0000000000, -0.0000000000, 0.0000000000, -0.0000000000, 0.0000000000, 0.0228487533, 0.0000000000, 0.0000000000, -0.0000000000, -0.0000000000, 0.0111253029, 0.0000000000, 0.0912747756, 0.0941384956, -0.0000000000, 0.0000000000, 0.0000000000, -0.0000000000, -0.0101439618, 0.0833234638, 0.1161166430, 0.0000000000, 0.0000000000, -0.1598174125, -0.0559984371, -0.0739295781, -0.0459862426, 0.0000000000, -0.0944913924, -0.0000000000, 0.1630170792, -0.0000000000, 0.0000000000, 0.0000000000, 0.0346793197, -0.0000000000, -0.0400084965, -0.0171600543, -0.0582331456, -0.0000000000, 0.0695874542, -0.0000000000, -0.0000000000, -0.0000000000, 0.1926494688, 0.0000000000, 0.0000000000, 0.0000000000, 0.1388108432, -0.0031276457, 0.0000000000, 0.0774160177, 0.1105605960, 0.1105157360, -0.2838350236, -0.0000000000, 0.0000000000, -0.0000000000, -0.0599201657, -0.0000000000, -0.0879200101, -0.1668333262, 0.0000000000, -0.1663795859, 0.0731786862, -0.0000000000, -0.0383389369, 0.0000000000, -0.1034466550, -0.0000000000, -0.0739024729, -0.0063360906, 0.0000000000, -0.1048464626, -0.1177353859, 0.0000000000, 0.0000000000, -0.0000000000, -0.0000000000, -0.0000000000, 0.0000000000, 0.0000000000, -0.0000000000, -0.0569342002, -0.0608452447, -0.0000000000, 0.0701518655, 0.0000000000, 0.1240791008, -0.1698488295, -0.2390789092, -0.0000000000, 0.1221982166, 0.0810197815, -0.1331409067, 0.2096472830, -0.0600226484, 0.1886153519, -0.0000000000, -0.0189756081, -0.1194212511, -0.0000000000, 0.2349820733, 0.0000000000, 0.1947350204, 0.1545989215, 0.0466353521, 0.0470323190, -0.0465414561, -0.0000000000, -0.0265106242, -0.0000000000, -0.0000000000, 0.0000000000, 0.0000764793, 0.0739208683, -0.0000000000, -0.0000000000, 0.0671034679, -0.0788623840, 0.0000000000, 0.0584911965, 0.0000000000, -0.1732058972, -0.0000000000, -0.0749444142, -0.1160039455, -0.3109218478, 0.0430164225, -0.0534047000, -0.0705204383, -0.0899099410, -0.0000000000, 0.0000000000, -0.0000000000, 0.0000000000, 0.0000000000, -0.0000000000, -0.0000000000, -0.1076193228, -0.0000000000, -0.0000000000, 0.0569015406, -0.0000000000, 0.0000000000, -0.0456939340, 0.1202903241, -0.0000000000, 0.0000000000, 0.0000000000, -0.0358556584, -0.0000000000, -0.0024802005, -0.1545161307, 0.1152406558, 0.0000000000, 0.1443101764, 0.0000000000, -0.0000000000, -0.0000000000, -0.0000000000, -0.1043156236, 0.0331822783, -0.0000000000, 0.0000000000, 0.0000000000, -0.0041087139, 0.0000000000, -0.0765113458, -0.0000000000, 0.0000000000, 0.0311209615, -0.0000000000, 0.0000000000, -0.0000000000, -0.0000000000, 0.0000000000, 0.0122871902, 0.0776789933, -0.0000000000, 0.0000000000, -0.1109917089, -0.0000000000, 0.0614404120, -0.0325254947, -0.0567195192, 0.0705181882, -0.0000000000, -0.0000000000, -0.0000000000, 0.0222150777, 0.1334555149, -0.0047463481, 0.0000000000, -0.1500436813, 0.0000000000, -0.0000000000, 0.0002651175, 0.0000000000, -0.0475043654, -0.0000000000, 0.0000000000, -0.0553266928, 0.0000000000, 0.0000000000, 0.0831781551, -0.0000000000, -0.0000000000, 0.1103904694, 0.1031819656, -0.0005807392, 0.0817758068, 0.0000000000, 0.0000000000, -0.0000000000, 0.0000000000, -0.1423358619, -0.0000000000, -0.0000000000, -0.0000000000, 0.0070271874, -0.0000000000, -0.2213809341, -0.0692817718, -0.0725079179, 0.1074351817, -0.0000000000, -0.0239026994, -0.0230797175, -0.0000000000, -0.0000000000, 0.0000000000, 0.0000000000, -0.0000000000, -0.0294850711, -0.0000000000, -0.0992313996, -0.0289499350, 0.0000000000, 0.1536659449, -0.0935559347, 0.0612814538, -0.0000000000, 0.0870818272, -0.0000000000, -0.0000000000, -0.0000000000, -0.0000000000, 0.0000000000, 0.1890537143, 0.1048842371, 0.0000000000, 0.0000000000, -0.0455209799, 0.0963797569, -0.0000000000, 0.0244690478, -0.0000000000, 0.0715459213, 0.0421382636, 0.0158756860, -0.0001957682, 0.0008762256, 0.0230984632, -0.0000000000, -0.0765635818, -0.0000000000, -0.1541649997, 0.1488893628, 0.0000000000, 0.0504529104, 0.0000000000, -0.0560630448, -0.0000000000, 0.1309216470, 0.0000000000, 0.0000000000, 0.2274468839, 0.1074111313, 0.0000000000, -0.0462647304, 0.1061277166, -0.0000000000, -0.0000000000, -0.0261223912, -0.0000000000, -0.0000000000, -0.0000000000, 0.0000000000, -0.0000000000, 0.0000000000, 0.0068929624, 0.0000000000, -0.0000000000, -0.0000000000, -0.1433990002, 0.0000000000, -0.0031259663, -0.0000000000, 0.0893135294, 0.0687812790, 0.1638995409, 0.1399349421, 0.2607735097, -0.1986536533, -0.0000000000, 0.0890207738, -0.0000000000, 0.0000000000, 0.1335301548, 0.0000000000, -0.1038225591, -0.1073078960, -0.0722509548, 0.1832593530, 0.2023345381, -0.0614879876, -0.0000000000, -0.0000000000, -0.0000000000, 0.0000000000, 0.0642700642, 0.0000000000, 0.0000000000, -0.0551790446, -0.0000000000, -0.0000000000, 0.0475768521, 0.1810872704, 0.0000000000, 0.0000000000, 0.0000000000, 0.0000000000, 0.0000000000, -0.0000000000, -0.0000000000, 0.1493939906, 0.1371701956, -0.0591798946, -0.0000000000, 0.0000000000, -0.0000000000, -0.0000000000, 0.0000000000, 0.0000000000, -0.0000000000, 0.0259058736, 0.0000000000, 0.0000000000, 0.1232825816, -0.1441714466, 0.0000000000, 0.0401287265, 0.0970604643, 0.0000000000, 0.0000000000, 0.0272377096, 0.1487706304, -0.0000000000, -0.0215326790, 0.0371566378, 0.1766916364, -0.0939076543, -0.0000000000, -0.0000000000, 0.0960232317, -0.0486535132, -0.0000000000, -0.0000000000, 0.0911927447, -0.0000000000, 0.0000000000, -0.0000000000, -0.0000000000, 0.0000000000, -0.0473391600, 0.0000000000, 0.0000000000, 0.0778295770, -0.0356059149, -0.1072722524, 0.0000000000, 0.1383022666, -0.2109339088, -0.0000000000, -0.1144588590, -0.0000000000, 0.0000000000, 0.1266317666, 0.0000000000, -0.1110155657, -0.0000000000, -0.0000000000, -0.0000000000, -0.0000000000, -0.0000000000, -0.0000000000, 0.0751478598, -0.0000000000, -0.0000000000, 0.0000000000, 0.0245515164, 0.0000000000, -0.0000000000, -0.1928046495, -0.0784046501, -0.0429977588, 0.0000000000, -0.2585164905, -0.0000000000, -0.0490320958, -0.0000000000, 0.0000000000, 0.1067082956, 0.1059314385, -0.0000000000, -0.0000000000, -0.0016467791, -0.0000000000, -0.0000000000, -0.1326519549, -0.0652762726, -0.0637552589, -0.1200855747, 0.1255408823, -0.0000000000, 0.0000000000, -0.0000000000, 0.0000000000, 0.0000000000, -0.0000000000, -0.0312276203, -0.0000000000, 0.0948364064, -0.1444417387, -0.0000000000, -0.0478444882, 0.0000000000, 0.0936127156, -0.0000000000, 0.0007106035, -0.0647439510, -0.0685287863, -0.0051718485, -0.0000000000, -0.0000000000, -0.1522720456, 0.0000000000, 0.0000000000, 0.0771937147, 0.0000000000, -0.0516608022, -0.1246374547, -0.4475269616, 0.0000000000, 0.0978640318, -0.0489005595, 0.0000000000, -0.0000000000, 0.0000000000, 0.0000000000, 0.0171152037, 0.0722376779, -0.0000000000, -0.0388862975, 0.0317013897, 0.0000000000, -0.0000000000, 0.0000000000, -0.0948994979, -0.0000000000, 0.0000000000, -0.2080690712, 0.0017327428, 0.0000000000, -0.0000000000, 0.0000000000, -0.0151553191, -0.0000000000, -0.1471522152, 0.0000000000, -0.1130497903, -0.0000000000, -0.0817070901, 0.1121698543, 0.0000000000, -0.0000000000, -0.0212448854, -0.0000000000, -0.0904158428, 0.0599502586, -0.0000000000, 0.0401835255, 0.0903962702, 0.0310855992, -0.0000000000, 0.0803621784, -0.0279977601, 0.0000000000, 0.0369225293, -0.0000000000, -0.0711144507, 0.0000000000, -0.0000000000, -0.0326612890, 0.0000000000, 0.0000000000, -0.1152493805, 0.0000000000, -0.0700306743, 0.0967356190, -0.0000000000, -0.0843697861, 0.0411858968, 0.0038876457, 0.0183615703, 0.0000000000, 0.0000000000, 0.0000000000, 0.0000000000, 0.0695850104, 0.0632884577, 0.0000000000, -0.1329385340, -0.0945549831, 0.0066018980, -0.0000000000, 0.0000000000, 0.0645873249, 0.0279663634, 0.0000000000, 0.1210745648, 0.0033648114, -0.0585596673, -0.1286657304, -0.0000000000, 0.1056818813, -0.0000000000, -0.1063190401, -0.0000000000, 0.0000000000, -0.0423851497, 0.1039371118, -0.1307702214, 0.0000000000, 0.0621314198, 0.0000000000, -0.0000000000, 0.0000000000, -0.0000000000, -0.1073338985, -0.0000000000, -0.0046883821, -0.0000000000, -0.0000000000, -0.0000000000, -0.0000000000, 0.0000000000, 0.0000000000, 0.1610791981, 0.0322295949, -0.1128069162, 0.0000000000, -0.1732800305, -0.0000000000, -0.0840838477, 0.0612007715, 0.1726337373, -0.0000000000, 0.1641076803, 0.0845435038, 0.0012778195, -0.0000000000, -0.1530472040, -0.0000000000, 0.0000000000, 0.0665024221, -0.0372898020, -0.2149796933, -0.0000000000, 0.0000000000, -0.1356643736, -0.0000000000, 0.0000000000, -0.0000000000, -0.0000000000, 0.0000000000, -0.0000000000, -0.0000000000, -0.1661488712, -0.0000000000, 0.0000000000, -0.0222713090, -0.0000000000, 0.0000000000, 0.0199969597, -0.0000000000, -0.0000000000, -0.1913466603, 0.0000000000, -0.0000000000, 0.1580110639, -0.0851759687, 0.1263084561, -0.0000000000, -0.2450829595, 0.0000000000, 0.1541676819, -0.0000000000, 0.1648399979, 0.1012618393, -0.0000000000, -0.0000000000, 0.1526836306, -0.0865475163, 0.0000000000, -0.0000000000, 0.1454095095, -0.0521550402, -0.0000000000, 0.0575675406, -0.0000000000, -0.0000000000, -0.0000000000, 0.0000000000, 0.0597353578, 0.0000000000, 0.0000000000, -0.0000000000, -0.0000000000, -0.0456506871, 0.0779922381, 0.0003665790, 0.1584665626, -0.0446292683, -0.0282625221, -0.0357214436, -0.0021950461, -0.2089459002, -0.0801077262, -0.0000000000, -0.1041082367, 0.0924587324, 0.0023901833, -0.0000000000, 0.0000000000, 0.0000000000, -0.0000000000, 0.0000000000, -0.0000000000, 0.0000000000, -0.0000000000, -0.1599032283, 0.1010470837, -0.0654623210, -0.0324431546, -0.1137247235, -0.0000000000, -0.1266355067, -0.0000000000, 0.0000000000, 0.0000000000, -0.0000000000, -0.0000000000, -0.0000000000, 0.1086812392, 0.0000000000, 0.0000000000, -0.0813422427, 0.0000000000, 0.0320682004, -0.0000000000, -0.0000000000, 0.0269747991, -0.0000000000, -0.0000000000, 0.0000000000, 0.0000000000, -0.0202575792, 0.0000000000, -0.0000000000, 0.0069604157, 0.0741651207, 0.0000000000, 0.0188487358, 0.0000000000, -0.0851840526, -0.0000000000, 0.0000000000, -0.0680758879, 0.0000000000, -0.1333034337, 0.0000000000, 0.0000000000, 0.0794088170, 0.0309915338, -0.0689501911, -0.0000000000, -0.0000000000, -0.0000000000, -0.0000000000, -0.0950785279, -0.0997059196, 0.0000000000, -0.0259297341, -0.0000000000, 0.0472432151, 0.0000000000, -0.0000000000, -0.0000000000, -0.0671997070, -0.0004789009, 0.0000000000, 0.1132640690, 0.0639310628, 0.0000000000, -0.0425392762, 0.0000000000, 0.0323312879, -0.0000000000, -0.1083227694, -0.0287371557, -0.1946853995, 0.0762564316, 0.0000000000, 0.0000000000, -0.0000000000, -0.0866656229, -0.0000000000, 0.0415088981, -0.0000038385, -0.0000000000, -0.0684564933, -0.0473573059, -0.0167637672, -0.2434544563, 0.0000000000, -0.0000000000, -0.0000000000, -0.1603831351, 0.0000000000, -0.0000000000, -0.2653508782, 0.0395292453, -0.0717777759, -0.0000000000, -0.0000000000, -0.0000000000, -0.0000000000, -0.0000000000, 0.0208760947, -0.0000000000, -0.0523700789, 0.0000000000, -0.0000000000, 0.0000000000, 0.0697505921, -0.0000000000, 0.0029241373, 0.0864451453, 0.0000000000, -0.0589745305, 0.0000000000, 0.0000000000, 0.1008979082, 0.0000000000, -0.0000000000, 0.0309374630, -0.0000000000, -0.0078778556, 0.0000000000, 0.1537181735, 0.0000000000, 0.0009334301, 0.1213451326, 0.0000000000, 0.0214426294, -0.0483055860, 0.0016609443, -0.0013396569, 0.0000000000, -0.0925938189, -0.0000000000, 0.0000000000, 0.1734928489, -0.0658638701, 0.0089895101, -0.0535111092, 0.0303013939, 0.0000000000, -0.0573258623, -0.0000000000, -0.0000000000, -0.1303777546, 0.0000000000, -0.0283408668, 0.0641923845, -0.0610142611, -0.1198112667, -0.0000000000, -0.1024175808, -0.0460596904, 0.0000000000, -0.0000000000, 0.0159136616, 0.1103230715, -0.1362521648, -0.0485147238, -0.0000000000, -0.1936586052, -0.0823131949, -0.2598101199, 0.2439035028, 0.1455758661, 0.0618474782, 0.0000000000, 0.0000000000, -0.2020235360, 0.0000000000, -0.2285518497, -0.0000000000, 0.0000000000, -0.0812516883, -0.1887451410, 0.0000000000, -0.0000000000, 0.0347326323, -0.0000000000, -0.1519987434, -0.1274659038, 0.0000000000, 0.0000000000, 0.0000000000, -0.0000000000, -0.1671414971, -0.0000000000, 0.0000000000, -0.1393728554, -0.1049500778, -0.1437084526, -0.0322111137, -0.1434297562, 0.0000000000, -0.0000000000, -0.0000000000, -0.1362810582, -0.0000000000, 0.0878643766, -0.2068744302, 0.1289135665, 0.0000000000, 0.0794986114, 0.0000000000, -0.0000000000, 0.0814443454, -0.1951939315, 0.0219399389, -0.0000000000, -0.1923146546, -0.0000000000, 0.0987784937, -0.3011616170, -0.1387868077, 0.0781474411, -0.2050243169, -0.0000000000, 0.1295303404, 0.0784166753, -0.0000000000, 0.0808455870, 0.1905038953, 0.1534442753, 0.1228603646, -0.0000000000, 0.0470189936, -0.0000000000, 0.0693712458, 0.0972888842, -0.0814737305, -0.1389675736, 0.1058598831, -0.0116432467, -0.0000000000, -0.0472461544, -0.0000000000, -0.0000000000, 0.0000000000, -0.0000000000, 0.0000000000, -0.0088437069, 0.0060453853, -0.0000000000, -0.3016820550, -0.0000000000, 0.0550224483, -0.2231986970, -0.1783863753, -0.1227286831, -0.0895924196, -0.1180256307, -0.0000000000, -0.0320991985, -0.0061985934, 0.0796303824, -0.1707428396, -0.0000000000, 0.0400335714, -0.0000000000, -0.1245626882, 0.0000000000, -0.0000000000, -0.1283099055, 0.0000000000, -0.0000000000, 0.0000000000, -0.0000000000, 0.0200784076, 0.1345892400, -0.0000000000, 0.0116152978, 0.0000000000, -0.1120905653, 0.0230957493, -0.0000000000, 0.0000000000, 0.0000000000, -0.0000000000, -0.0000000000, 0.0502696373, -0.0263733268, 0.1472063512, 0.0109195802, 0.0000000000, 0.1824521273, -0.0000000000, 0.1513555050, -0.0000000000, -0.0000000000, 0.0226806793, -0.0000000000, 0.0617516153, 0.0000000000, -0.0000000000, -0.0000000000, 0.0000000000, -0.1566493064, 0.0675612688, -0.0529525168, 0.0000000000, -0.0000000000, -0.0000000000, 0.0000000000, 0.1600655317, -0.0585899055, -0.0365675017, -0.0000000000, -0.0560912266, -0.0000000000, 0.0623190179, 0.0000000000, -0.0346622691, -0.0879233778, 0.0132924961, 0.0254604146, -0.0000000000, -0.0000000000, 0.0000000000, -0.0000000000, -0.0000000000, 0.0000000000, 0.0000000000, -0.0000000000, -0.0301693492, -0.0573356599, -0.0398466624, -0.0902720317, -0.0000000000, 0.0294845980, 0.0000000000, -0.0000000000, 0.0000000000, -0.0547305755, -0.0000000000, -0.1429596096, 0.1013948470, -0.0000000000, 0.0676141083, -0.0000000000, -0.0000000000, -0.0210302323, -0.2353949249, -0.2188560367, -0.0610770807, -0.0000000000, 0.0533485226, 0.0202081893, -0.1123535186, -0.1628670096, -0.0562402979, 0.0425338708, 0.0000000000, -0.1625420153, 0.0580388010, 0.0012936844, 0.0483407825, 0.0743782744, 0.0851597190, -0.0000000000, 0.0514922179, -0.1029248014, -0.0000000000, 0.0000000000, 0.0383100808, -0.0000000000, 0.0000000000, -0.0177167356, 0.1066430956, -0.0000000000, 0.0000000000, 0.0000000000, 0.1434092522, 0.0000000000, -0.0000000000, -0.0000000000, 0.0837213248, -0.0000000000, -0.0362928398, -0.0394628905, 0.0000000000, 0.0000000000, 0.0000000000, -0.0170221031, -0.0000000000, -0.0004416480, 0.0573444217, -0.0378534645, 0.0000000000, 0.0381220281, -0.0003734447, -0.0000000000, 0.0592549928, -0.0768138468, 0.0000000000, 0.0000000000, 0.0000000000, 0.0248442404, -0.0000000000, 0.0000000000, -0.0000000000, 0.0974099115, 0.0000000000, -0.0000000000, 0.0595504642, -0.0755192861, -0.0000000000, -0.0824025795, 0.0741826594, -0.0000000000, -0.0678962916, -0.0000000000, 0.0000000000, -0.0000000000, -0.0000000000, -0.0000000000, 0.1087192744, -0.0000000000, -0.0000000000, 0.0000000000, 0.0000000000, -0.0000000000, 0.0790676922, 0.0000000000, 0.0000000000, -0.0303943437, 0.0600396357, -0.1068219095, 0.0000000000, -0.1738474965, 0.0000000000, -0.0000000000, -0.1816292554, -0.2212799937, -0.0521996357, 0.0653678626, -0.0599781647, -0.1211072654, 0.0000000000, -0.0000000000, 0.0000000000, -0.0494004302, 0.0000000000, 0.1364290863, -0.0000000000, -0.0902869105, -0.0000000000, -0.0000000000, 0.0333652981, 0.0000000000, 0.0000000000, -0.0122637460, -0.0000000000, -0.0309179612, -0.0934546962, -0.0000000000, 0.0055485852, 0.0257063899, -0.0725178048, 0.1078036949, 0.0000000000, -0.0088728862, -0.0000000000, 0.0000000000, 0.0804566070, 0.1542398483, 0.0000000000, -0.0000000000, -0.0000000000, -0.3004467785, 0.0000000000, 0.1524533331, -0.0000000000, 0.0000000000, 0.0722070709, 0.0809992328, -0.0050715422, -0.0000000000, -0.0000000000, 0.0000000000, 0.0396559425, 0.1776801050, -0.0550777055, -0.0000000000, 0.0098005068, 0.0637001619, 0.0783945173, 0.0445768200, 0.0917284191, 0.0440596789, -0.0000000000, 0.0000000000, 0.0305091217, -0.0000000000, -0.0902875066, -0.0017782614, 0.0000000000, 0.0000000000, 0.0899394229, -0.0875246450, 0.0000000000, -0.0000000000, 0.1410818100, -0.1919659525, -0.0000000000, 0.0000000000, -0.0800753608, 0.0000000000, 0.0000000000, 0.0000000000, -0.0300090108, -0.1759489328, -0.3728785515, -0.1651574969, -0.0000000000, -0.0000000000, 0.0158712398, 0.0000000000, -0.0000000000, -0.0000000000, 0.0000000000, -0.0000000000, 0.0000000000, -0.0000000000, 0.0000000000, -0.0002382619, 0.0451395735, 0.1006321311, 0.0000000000, -0.1473265439, 0.0000000000, -0.0000000000, 0.0000000000, 0.0000000000, -0.0000000000, -0.0311975814, -0.0000000000, 0.0000000000, 0.1325322539, 0.0277357008, -0.0825407952, -0.0609175637, 0.0116882073, 0.0210477542, 0.0389448777, -0.0000000000, 0.0000000000, -0.0000000000, 0.0000000000, 0.0000000000, -0.0000000000, -0.0000000000, -0.0000000000, -0.0000000000, 0.0000000000, -0.0784376413, 0.0020607947, 0.0584089793, -0.0000000000, 0.0000000000, -0.0336851962, -0.0971289799, 0.0605273619, -0.0000000000, -0.0000000000, 0.0850655213, 0.0222461410, 0.0000000000, -0.0831302032, 0.0000000000, 0.0000000000, -0.0709122792, -0.0000000000, -0.2485909313, 0.0259059370, 0.0371284671, -0.0663939416, 0.1241551712, -0.0954073891, 0.0000000000, -0.1491151303, 0.0000000000, -0.0000000000, -0.0000000000, 0.1146801636, 0.1241335422, 0.0982876122, 0.0574658923, -0.0020722074, 0.0604714341, -0.0000000000, -0.0000000000, -0.0000000000, -0.0252087377, 0.1231285334, -0.0000000000, -0.0830766782, 0.0000000000, -0.0000000000, -0.2472949773, 0.0000000000, 0.0227501225, -0.0042552655, -0.1612209678, 0.0065745013, -0.2020239383, 0.1031928286, -0.0000000000, -0.0000000000, -0.2673159242, -0.0000000000, -0.0000000000, 0.1261889338, -0.0540941395, -0.0682324171, -0.0000000000, 0.0000000000, -0.0165019259, -0.0000000000, -0.1292597950, -0.0000000000, 0.0000000000, 0.1004035026, 0.1619348973, -0.0583520234, 0.1451635063, 0.0000000000, -0.0000000000, 0.0000000000, -0.0788357407, 0.0183637757, -0.0494088903, -0.0000000000, -0.0000000000, 0.0635050461, 0.0000000000, -0.0218344498, 0.0665735230, 0.0000000000, 0.0000000000, -0.0000000000, -0.0585158840, 0.0804134831, -0.0000000000, 0.0000000000, -0.0996125191, -0.0000000000, -0.0000000000, -0.0877740532, 0.0529576652, -0.0360917486, 0.0000000000, 0.0000000000, 0.0000000000, 0.0614954606, -0.0000000000, 0.0000000000, 0.0000000000, 0.0000000000, -0.0000000000, -0.0000000000, 0.0000000000, -0.0492743440, 0.1056656316, 0.0421704240, -0.0000000000, 0.0000000000, -0.0000000000, 0.1404698193, 0.0529176369, -0.0000000000, -0.0000000000, -0.1362796724, -0.0000000000, -0.2061191350, -0.0000000000, 0.1278362572, 0.0640577972, 0.0000000000, 0.0000000000, -0.3261297941, -0.0046238876, -0.0079530841, -0.0000000000, -0.0881834254, 0.0000000000, -0.0000000000, 0.0000000000, 0.1398693174, 0.0925263986, 0.0623698495, -0.0730328858, -0.0741234273, 0.1672084481, 0.0000000000, 0.0000000000, 0.0000000000, 0.0144583108, -0.1197638288, -0.1155073196, 0.1898483187, -0.0000000000, -0.0000000000, -0.1401146799, -0.0000000000, -0.0000000000, 0.0000000000, -0.0000000000, -0.0000000000, -0.1290662736, -0.0117406119, 0.0000000000, 0.1593620181, 0.0490557477, 0.0770798028, -0.0000000000, 0.0518490337, 0.1689019203, -0.1973701566, -0.0000000000, -0.0000000000, -0.0000000000, -0.0805866569, 0.0045008012, 0.0197339244, -0.0000000000, 0.0000000000, 0.2638993561, 0.2417034507, 0.1615524292, 0.2984343469, 0.0674799904, -0.0000000000, 0.0787440017, -0.2098070532, -0.0788452476, -0.0830297470, -0.0000000000, -0.0000000000, -0.0000000000, 0.0772201866, -0.0000000000, 0.0513088629, -0.0000000000, 0.0473401472, 0.0069080628, -0.0166225377, 0.0000000000, -0.0201519597, 0.0400426425, 0.1511991620, -0.0000000000, 0.0788064152, 0.0493321158, -0.0973592028, -0.0000000000, -0.1992588639, 0.0774209499, 0.0000000000, -0.2271797061, -0.0703941882, -0.1445945650, -0.0000000000, 0.0941787809, -0.0581245646, -0.1514384151, -0.1319639832, -0.0791595206, 0.0000000000, -0.1503760070, 0.0349949710, -0.0000000000, -0.0000000000, 0.0749485344, -0.1334259510, 0.0000000000, -0.0675566196, -0.0000000000, 0.0000000000, -0.0964974612, 0.0633522049, -0.0000000000, -0.0000000000, 0.2094816715, -0.0000000000, 0.0000000000, 0.0000000000, 0.0000000000, -0.1066364720, 0.0000000000, -0.1336382478, -0.0000000000, -0.0371780396, -0.0646888018, 0.0000000000, -0.0000000000, 0.0271464996, 0.0000000000, -0.0000000000, 0.0000000000, -0.1194311529, 0.0676311702, 0.0000000000, -0.0000000000, 0.0000000000, 0.0000000000, -0.0000000000, -0.0000000000, -0.0460710861, 0.0393539183, 0.0000000000, -0.0000000000, 0.0000000000, -0.0982287750, -0.0000000000, 0.0000000000, -0.0000000000, 0.0932374746, -0.0000000000, -0.0748820677, -0.0000000000, 0.0842893422, 0.0329841301, -0.0708376765, -0.0000000000, -0.0716400743, 0.0217754673, 0.0542018674, 0.0096656410, 0.0000000000, -0.2014109939, 0.0386958383, -0.0863152817, -0.0372909680, 0.0000000000, -0.1127351820, -0.0796633810, 0.0000000000, -0.1466093212, -0.0510757342, -0.0944990143, 0.1182781458, -0.1124908552, -0.0000000000, 0.0000000000, -0.0284445379, -0.0986808687, -0.0659452975, -0.0000000000, -0.0457960591, 0.0000000000, 0.1656110585, 0.0981054902, 0.0000000000, -0.1529219598, 0.0000000000, -0.1774086505, -0.0461187325, -0.1128730178, -0.0000000000, 0.0000000000, -0.1010548994, 0.1413717270, -0.0043658717, -0.1852885783, -0.0396797284, 0.0257462598, -0.0000000000, 0.0310693849, -0.0000000000, 0.0000000000, -0.0000000000, 0.0468595885, 0.0722789913, -0.0000000000, -0.0537481681, -0.0000000000, 0.0000000000, 0.0000000000, -0.0503755584, 0.0000000000, -0.1029295921, 0.0994569585, -0.0644560158, -0.0415061489, 0.0826917961, 0.0177267101, 0.0710590109, -0.0000000000, 0.0786989704, 0.0000000000, 0.1108093560, 0.0000000000, 0.0880727321, 0.0000000000, 0.0000000000, 0.0126534216, 0.1076329052, -0.0515225790, 0.0000000000, -0.0632129610, 0.0000000000, -0.0000000000, -0.0000000000, 0.0000000000, -0.0000000000, -0.0000000000, 0.0192121621, -0.1554105580, 0.0000000000, 0.0519318990, -0.0934134573, -0.0000000000, 0.0265852772, 0.0335501954, 0.0399999842, -0.0000000000, 0.1366873682, -0.0551893227, -0.0684644580, 0.0110232793, -0.0000000000, 0.0000000000, -0.1425235271, 0.1469267309, -0.0000000000, -0.0000000000, -0.1454328001, 0.1582794636, -0.0000000000, -0.0597396567, 0.0000000000, 0.2204386592, 0.0000000000, 0.0000000000, -0.0080823163, -0.1134269834, -0.1346075833, -0.0142587014, 0.0890135318, -0.2673210502, 0.0000000000, 0.0912174806, -0.0495720841, 0.0000000000, 0.2642380893, 0.0000000000, -0.0000000000, -0.0000000000, 0.0572483689, -0.0000000000, -0.0000000000, 0.0000000000, -0.2278876454, 0.0000000000, -0.0756054446, 0.0653646886, -0.0000000000, -0.0591813847, -0.2154513448, 0.1706302464, -0.2053734511, -0.1564209610, -0.0000000000, -0.0000000000, 0.0000000000, -0.0000000000, -0.0000000000, -0.0000000000, 0.0392828025, 0.0000000000, 0.0012139882, 0.0477697700, -0.0000000000, -0.0913123339, 0.0393379442, 0.1009732932, 0.2252943665, -0.1779699326, -0.0000000000, -0.0000000000, -0.0000000000, 0.0000000000, 0.0986303911, 0.1350176483, -0.0000000000, 0.0549676158, -0.0322592854, -0.0000000000, -0.0000000000, 0.0957914442, 0.1694952101, -0.0257893186, 0.2406108975, -0.0000000000, -0.0296925548, -0.0000000000, -0.0000000000, -0.0000000000, -0.0000000000, -0.1178277209, 0.0000000000, -0.0718322247, 0.0633619353, 0.0000000000, 0.0000000000, 0.0000000000, -0.1433674544, 0.1031829268, 0.0000000000, 0.0000000000, 0.0262283478, -0.1810521334, -0.0181522612, 0.2128248811, 0.0000000000, -0.0000000000, -0.0000000000, -0.0000000000, 0.1368532628, -0.1509482712, -0.2186119109, 0.0997086540, 0.1224457175, -0.2480662614, -0.3665867150, -0.0027809264, 0.1156630814, -0.0000000000, 0.0000000000, -0.0580236465, -0.2266982049, -0.0824736506, -0.0128129730, -0.1921252608, -0.1421749592, 0.0000000000, -0.1340779662, -0.0000000000, -0.0000000000, 0.0000000000, -0.0000000000, 0.0724816620, -0.0000000000, 0.0000000000, 0.0000000000, -0.0000000000, -0.0000000000, -0.0000000000, 0.0000000000, 0.0000000000, -0.0000000000, 0.1146834791, 0.0000000000, 0.1749362648, -0.0147815011, -0.0923871472, -0.0000000000, 0.0000000000, -0.0000000000, 0.1372691989, 0.0000000000, -0.1698247343, -0.0000000000, -0.0210162252, -0.0000000000, 0.0000000000, -0.0000000000, 0.0000000000, 0.1709429175, -0.1082267091, -0.0784527883, -0.0000000000, -0.0000000000, -0.0000000000, 0.0135253649, -0.0830034912, 0.0631376058, 0.0000000000, 0.0000000000, 0.0680617616, 0.0000000000, -0.0534995459, 0.0000000000, -0.0000000000, -0.0000000000, 0.0000000000, -0.0000000000, -0.0000000000, -0.2400749326, 0.0000000000, 0.1149245724, -0.0828675106, -0.1045232713, -0.0538690090, -0.0000000000, -0.0787539929, -0.0000000000, -0.1368481964, -0.0887724683, 0.0000000000, 0.1570547521, -0.0075188843, 0.0000000000, 0.2085857540, 0.1066304073, 0.1256564260, -0.0000595935, -0.0000000000, 0.0682383999, 0.0228497833, -0.0832060575, 0.1239591762, -0.1849232465, 0.0000000000, 0.0262474101, 0.0000000000, -0.0000000000, -0.0000000000, 0.0000000000, 0.0596031547, -0.1650913954, 0.0547420904, -0.0000000000, 0.0515844114, -0.0862979963, 0.0666154996, -0.0000000000, -0.0000000000, 0.0743754208, -0.0000000000, -0.0248933937, 0.0000000000, -0.0000000000, -0.1174574420, -0.0575347804, 0.0694869310, -0.1699721068, 0.1160030961, 0.0000000000, -0.0200225711, 0.0000000000, -0.0565840118, 0.1198657081, -0.0737765804, -0.0000000000, 0.0000000000, -0.0678942204, 0.0000000000, 0.0989763662, 0.0000000000, 0.0000000000, -0.0000000000, 0.0659215599, -0.0169762280, 0.0000000000, -0.0000000000, 0.0923036337, -0.0000000000, -0.0000000000, 0.0000000000, -0.0000000000, 0.0487871170, 0.0324534588, -0.0776538476, 0.0000000000, -0.0000000000, -0.0000000000, -0.0492394976, -0.0000000000, -0.0142532419, 0.1899430603, -0.0000000000, 0.0000000000, -0.0822067410, -0.0000000000, -0.0873633996, -0.0848729685, 0.0000000000, -0.0000000000, -0.0000000000, 0.0295788795, -0.0193750430, 0.0122519750, 0.0486438721, -0.1474061608, -0.1133317277, -0.2062519789, -0.0672261715, -0.0990017876, -0.0489304774, -0.0907597914, 0.1840432733, 0.0763303116, 0.1210103258, 0.1397922486, 0.0000000000, 0.0000000000, -0.0648007095, -0.0000000000, 0.0726772547, -0.0000000000, -0.1224035621, -0.0000000000, -0.0000000000, 0.0000000000, 0.1273948997, 0.0000000000, -0.1352789551, -0.0000000000, -0.1131849512, 0.1410506368, -0.0000000000, -0.0924635530, -0.0000000000, -0.0221876856, -0.0000000000, -0.0000000000, 0.0000000000, -0.0000000000, -0.0000000000, -0.1006087214, -0.0000000000, -0.0777140632, -0.0661069751, 0.0337362960, 0.0000000000, -0.0000000000, -0.0000000000, 0.0210674722, 0.0720111206, 0.0000000000, 0.1459037066, -0.0000000000, -0.1421623826, -0.0000000000, -0.0000000000, -0.1224429607, 0.0000000000, 0.2278109789, -0.0000000000, 0.1593685746, 0.0000000000, -0.0000000000, 0.0024338081, -0.0000000000, 0.0432815179, -0.0966779366, -0.0000000000, 0.2657569647, -0.0000000000, -0.0000000000, -0.0885806680, -0.0502823368, 0.0438366644, -0.0938521996, -0.0897750109, -0.0198909082, -0.0000000000, 0.0409028567, 0.0000000000, -0.0000000000, 0.0000000000, -0.0000000000, 0.0000000000, 0.0000000000, 0.1965754032, -0.3015809357, 0.0000000000, -0.0000000000, 0.0000000000, -0.1053495333, -0.0884601027, 0.0000000000, -0.1656461209, 0.0989623889, 0.0414856598, 0.0000000000, 0.1284757704, -0.2252221406, 0.0000000000, -0.0000000000, 0.1001869366, -0.0139027126, -0.0000000000, -0.0492007807, -0.0000000000, -0.0000000000, 0.0804810748, -0.0000000000, -0.1076266617, -0.0000000000, -0.1856067628, -0.0000000000, -0.0000000000, 0.1348650157, -0.0286338422, -0.0000000000};

#endif

#endif
