//Numpy array shape [64]
//Min -0.693393051624
//Max 0.587999880314
//Number of zeros 0

#ifndef B2_H_
#define B2_H_

#ifndef __SYNTHESIS__
model_default_t b2[64];
#else
model_default_t b2[64] = {0.2666038275, 0.1241256371, 0.3355822563, -0.3831483424, 0.4475168586, -0.0560955219, -0.0699507371, 0.0283989962, 0.0589871295, 0.1606316417, -0.1241212934, 0.1234297156, -0.1074443012, 0.3695907891, 0.0282898974, 0.1447386742, -0.2844681740, -0.2620201409, -0.0064501925, 0.3901645839, -0.2501633167, 0.0808080211, 0.0015201286, 0.0720861927, 0.4920304120, 0.0099191405, 0.1761957258, -0.0379934572, 0.3669590652, -0.0575634912, 0.0361889564, 0.1456360817, 0.1103928164, -0.1183772385, 0.2451038808, -0.0604259521, -0.1512294412, 0.1580719054, -0.0702533796, 0.3705890775, 0.3770693243, -0.0823260695, 0.4004138410, 0.5879998803, 0.3678669930, -0.0046428540, 0.2402766794, 0.3160346150, 0.3963477612, 0.1935712844, 0.4235957265, -0.6933930516, 0.0702257231, 0.4813312292, -0.1297413409, 0.0909908041, -0.1723099947, -0.1061504036, 0.0109277135, -0.1723103225, -0.1223143041, -0.0658072382, 0.2902672887, 0.1736485064};

#endif

#endif
