//Numpy array shape [32, 5]
//Min -1.440455913544
//Max 1.444965600967
//Number of zeros 0

#ifndef W11_H_
#define W11_H_

#ifndef __SYNTHESIS__
model_default_t w11[160];
#else
model_default_t w11[160] = {0.0858349502, -0.9568411112, 0.0349043049, -0.0068060029, 0.0422461107, -0.0832953751, 0.0007608323, -0.5686212778, 1.3664695024, -0.1129832417, -0.8552363515, 0.2444887608, -0.1526440233, -0.0398948640, 0.4965672493, 0.4825336635, 0.6007360816, -0.7767336369, -0.3587733209, -0.2063518465, -0.4547053874, -0.0157811679, 0.3227055967, 0.0513534285, 0.3046672940, -0.3134291470, -0.5457838178, 0.4038085639, -0.0012427102, 0.0416180789, 1.4449656010, 0.0063451161, -0.0046959026, -0.7830491066, -0.9784768224, -0.6217499375, 0.3031930029, 0.3429752886, -0.0787623897, 0.0996780843, 0.3569034934, -0.2169056535, 0.1249948293, -0.4883129597, 0.1863001734, -0.0002178230, 0.1999677420, -0.0016314037, 0.4030290842, -0.7789227366, -0.0889668018, -0.2812707722, -0.1816956550, 0.0890094116, 0.9167202711, -0.0000054836, -0.0000247328, -0.0000732660, -0.0000221932, -0.0000847633, -0.1597572714, 0.6209017038, -0.0872148573, -0.0015292158, -0.4130285680, -0.2921044230, -0.8829910755, 0.0049745715, 0.7309774756, 0.0018146817, 0.8239129782, -0.5911613703, 0.0369415544, -0.6906368136, -0.4082857668, 0.4986470938, 0.1561771333, 0.0963599458, -0.6985398531, -0.0678084269, 0.3471671343, -0.0131179374, 0.4284937084, -0.3430117965, -1.2273474932, -0.0335909352, -0.8009095788, 0.7778425813, 0.7421752810, -0.8434022069, -0.0001249308, 0.0001020822, 0.0000373141, 0.0000374513, 0.0001408747, -0.0538118035, 0.3864240646, -0.8243540525, 0.2629493177, 0.4653576314, -0.2280402333, -0.4602204859, -0.5451257229, 0.1909492761, 1.1207792759, -0.0002860959, 0.1269530207, 0.4391570091, 0.7605199218, -1.2547029257, -0.1269832551, 0.0028938842, -0.0363055393, 0.7511851788, -0.6191658378, 0.0000480742, 0.0745865405, 0.3067763448, 0.1867596358, -1.4404559135, -0.0002677150, -0.0002053209, 0.0001171212, -0.0000044231, -0.0001006283, 0.1812565178, 0.0011040041, -0.1504932195, -0.4340338111, 0.1657021940, -0.2696787417, 0.1768585593, -0.0028420412, 0.5072532892, -0.5559473634, -0.0001856301, 0.5142275691, -0.7542130351, -0.0026764493, 0.2506235540, -0.5455390215, -0.1452612728, -0.0538766719, -0.0514963046, 0.3234468699, -0.0222329702, -0.0006212895, 0.4115830064, -0.0055790255, 0.1958483756, 0.0019676536, -0.0014090337, 0.2967680693, -0.5608224869, -0.0035213390, -0.2601145208, -0.0109869866, 0.5612722039, -0.0209080074, 0.0008879658};

#endif

#endif
