//Numpy array shape [16, 64]
//Min -1.023710370064
//Max 1.793004989624
//Number of zeros 0

#ifndef W2_H_
#define W2_H_

#ifndef __SYNTHESIS__
model_default_t w2[1024];
#else
model_default_t w2[1024] = {-0.0115205245, -0.3846022189, 0.0025982864, 0.0008746543, -0.3950333297, -0.0125922561, -0.0000222099, -0.2222177386, 0.2835929096, 0.2280388474, -0.0529289879, -0.4607611597, -0.1285181344, -0.3687089980, -0.0098155057, -0.0010460793, -0.4076864123, -0.0402346663, -0.0000140323, 0.4035543799, -0.2514784336, -0.0604626983, -0.0000380486, -0.0072702453, -0.1233331263, 0.0013555964, 0.0075092469, -0.2797353566, -0.3562632203, -0.2459058762, -0.0023856543, -0.0592389703, 0.2771902978, 0.2623831332, -0.0404605903, 0.2799711525, -0.0885477066, 0.0571984388, -0.0616070852, 0.2510499060, 0.1421861947, -0.0057279523, 0.0034065121, 0.0029328640, 0.1457034647, -0.0000061512, 0.0383184589, -0.1240543500, -0.0599670447, -0.0012789856, 0.0015624702, -0.0315021165, -0.0603192411, 0.0234318450, -0.0498042963, 0.0272623710, 0.0101073608, -0.0000110191, -0.3768971562, -0.0595191792, 0.0463842303, 0.2778044939, 0.2407893986, 0.0551711805, -0.0145514226, -0.1661061943, -0.0001826996, -0.2337243557, -0.0719245747, -0.0062151873, -0.0000071310, -0.0087221079, 0.0797038078, 0.1143571734, -0.1367985904, -0.1207677722, 0.0045654676, 0.1746294051, 0.0265202317, 0.0494935624, 0.2126884162, 0.0116548138, 0.0000140531, 0.5936020017, 0.2490123808, -0.0234597027, 0.0000438052, 0.0034373808, 0.0226453263, 0.2431776524, -0.0215053875, -0.3433678150, 0.0039598010, -0.0056431652, 0.0172752086, -0.1037129685, 0.7451177239, 1.0125871897, 0.0578279234, -0.0044505848, -0.0045944834, 0.0532254130, 0.0050557246, 0.1447895616, -0.0018390305, 0.2796032429, 0.1100104153, -0.0028627231, -0.0170618352, 0.0000323913, -0.1152561232, -0.0044361386, 0.0032622479, -0.0754758045, 0.1647623479, -0.0476193391, -0.0003784714, -0.2482988983, -0.0218998902, -0.0385964476, -0.0169263985, -0.0000223672, -0.0017656187, -0.0474214740, -0.0481200628, 0.0940954760, 0.0710305721, -0.0017594317, 0.0003340815, -0.2920065820, 0.0801443681, -0.0008182402, 0.0119241355, 0.3274178803, -0.0000831873, -0.0991625562, -0.4837210178, 0.1477527171, 0.0025320633, 0.0001172624, 0.3388105333, 0.0667957142, 0.0005835044, 0.0013453367, -0.0029229301, 0.0024488755, 0.0000175537, 0.0703934282, -0.0052210474, -0.0820884854, 0.0000348766, -0.5381451845, 0.2832525969, 0.3109660149, -0.7250373960, -0.2317906320, -0.3369460106, 0.0013825222, -0.0024743306, 0.6786144972, 0.0094893388, 0.2921779454, -0.0004222422, -0.0794623569, 0.0099497428, 0.0749732479, 0.0021998812, -0.4816161096, 0.3363848925, -0.2997141182, 0.4162326157, 0.3723732233, 0.0711476952, 0.0000059644, 0.0033815741, -0.1341316551, 0.0290047526, 0.0149211343, 0.0293585192, -0.3724488616, 0.0008197415, -0.0044380035, -0.0057337056, 0.0028736412, -0.0169149190, -0.0000579091, -0.0501541197, -0.6265361309, 0.0016988204, 0.0010523834, 0.0001463378, -0.0352656841, -0.2048308104, -0.1725595295, 0.1091386005, -0.0015187127, -0.8759974241, 0.5195348263, 0.0001266591, -0.9559550285, -0.7069356441, -0.0021456841, -0.6309733987, 0.0066936822, 0.2118178457, -0.3262335062, 0.0287765581, -0.0073752962, -0.0006498233, 0.2663276196, 0.0000824588, -0.1993635297, 0.1037159786, -0.1059225649, 0.0000469732, -0.7872345448, -0.1154723689, -0.0009821600, -0.2553707361, 0.0007213858, -0.7170050740, 0.0000394011, -0.0017024737, 0.8632341623, -0.0958702490, -0.0119063519, -0.0190729592, -0.0007638243, 0.0331270546, -0.5223447084, -0.2248964757, -0.9612422585, 0.0003609192, 0.0016838239, -0.0000527728, -0.0371522792, 0.0005314364, 0.0002580590, -0.3299973011, -0.1470010579, 0.0013777161, -0.0005249728, -0.0040577301, 0.4639232159, 0.0003069371, -0.0683352873, 0.3299830556, 0.0049727168, 0.3960530758, 0.0000152776, -0.1522877216, -0.1504359394, 0.0027963726, -0.0361263715, 0.0019274045, -0.1459584981, 0.0385150053, 0.0034246475, 0.2124462426, -0.0016565805, -0.0253383443, 0.5022792816, -0.0000591794, -0.4342637062, -0.1579843163, 0.0036527615, -0.1303463131, -0.1144769564, 0.0497838147, 0.5333629847, 0.1196334362, 0.0007784385, -0.1272640377, 0.0000590050, 0.0000072672, 0.3609946966, -0.0011205454, -0.7186909914, 0.0000274970, -0.2472335845, -0.0441109166, -0.0012483809, -0.2625446320, -0.1452451497, -0.3091734052, -0.1260160357, -0.0577412955, 0.5071704984, 0.0009527631, 0.2078761756, 0.2516705990, 0.0000367049, 0.0221307892, 0.2926506698, -0.1473299712, -0.2306524664, 0.4891107380, -0.0556731299, 0.0389360823, 0.0252330229, 0.0025041755, -0.0000974783, 0.2735281289, -0.0623713657, 0.0587996095, 0.0204992779, 0.2449378371, -0.4353114665, 0.0105893463, -0.0012569784, 0.0082634734, 0.0119945481, -0.0039551253, -0.0000023942, -0.0004369273, -0.3577635884, 0.1778576672, -0.0001943610, 0.0014303089, 0.0000324190, 0.0008228698, 0.0054910476, 0.0021790694, -0.0021617517, -0.0644903854, -0.0017015226, -0.0000252922, -0.0021174247, -0.0005286288, -0.0028205642, 0.0025744510, 0.0188105125, 0.3025842309, -0.1908289045, -0.0033624615, -0.1186874360, 0.0036655255, -0.0015439736, 0.0000687338, -0.0025295033, -0.0877221078, 0.0971248969, -0.0000099983, -0.1011239737, -0.0504141822, -0.0026685596, 0.0545530692, -0.0014300843, -0.0719435439, -0.0228685699, -0.0041490295, 0.0010955477, -0.0102792047, -0.0450978912, -0.0015445189, 0.1442829370, -0.2782800496, -0.0506031699, 0.0113741122, -0.1900112778, -0.2803870440, 0.2374668866, -0.0580166876, -0.0011822901, -0.0001990417, 0.0001374633, 0.0018022321, -0.3334793746, 0.0034858354, 0.1724405885, 0.0330196694, 0.1090042591, 0.0015725736, -0.0007686846, 0.3755983412, 0.1556721181, -0.0032760233, -0.0000394659, 0.1050064191, -0.3193540573, 0.0035900804, -0.0017069062, -0.0004665923, -0.0002809740, 0.0568546690, 0.0389198884, 0.0024563365, 0.0114505291, -0.0002538139, 0.0780621544, 0.0000596704, 0.0092950007, 0.1601478755, 0.0141206235, -0.3914019465, 0.3385998309, -0.0019106270, -0.0748302490, -0.0821175203, -0.0538202152, 0.0010630004, -0.0021696063, -0.0000014873, -0.0002625719, 0.0614199229, 0.0275653992, -0.0000638414, -0.0034338017, -0.0635401756, 0.1150559708, -0.0460930057, 0.0019110575, 0.0004910133, 0.0010211595, 0.0005828404, 0.0785431042, -0.0285742600, -0.0464265570, 0.0070016515, 0.0438701175, 0.2347279191, -0.1710416079, 0.0238442179, 0.2320311517, -0.0039362279, -0.1176431179, 0.2942925692, -0.0140424585, 0.0914617181, -0.0002882282, -0.0246899389, 0.1150052324, -0.0010944930, -0.1268186569, 0.0009496011, 0.0884830430, 0.0237806905, 0.0010497551, -0.0492761284, 0.0025808855, 0.1651768833, 0.0000288585, 0.0005534830, 0.0000446083, -0.0026442590, -0.0018554210, 0.2301188111, 0.1142954230, -0.0431824028, 0.0233144686, -0.0021827447, 0.0004984383, 0.0424581394, 0.0010574175, 0.0000704637, -0.0441867933, -0.0476108678, -0.0752757564, 0.0355336927, 0.1347361356, -0.0473647229, -0.0020042155, -0.1127655134, -0.3737253547, 0.0077405870, -0.4151416123, -0.0000421137, -0.0079502584, -0.0237713363, -0.1471927613, 0.0000119031, -0.0177492220, 0.1334778816, 0.0081051234, 0.0675620511, -0.0893358737, 0.0564759336, 0.0032969411, 0.0135196391, -0.0066205561, 0.0991591215, 0.0094201053, 0.0018436033, 0.0035601812, -0.5669617653, 0.0269461572, 0.0467668585, 0.2540743351, -0.4012759626, -0.0093554538, 0.0023880068, 0.0317252800, -0.0014936414, 0.0000002213, 0.0003745724, 0.0017966076, 0.0027525346, -0.0008008850, 0.0911721885, -0.0143136112, -0.0001603085, 0.0028913470, 0.0525775701, 0.2287633866, 0.0041206060, -0.0000185906, 0.1206762865, -0.0587974563, 0.1149881408, -0.0807730481, -0.0028592963, -0.2994225323, -0.1212687045, 0.0042444975, 0.0024514322, 0.0014714921, -0.0002513565, -0.1003402174, 0.0001700689, 0.0587979928, -0.1649812758, 0.0026003243, -0.2292923331, -0.2585895061, -0.0598169863, -0.1643380076, -0.1509376466, -0.0033665514, 0.0010629594, -0.0021750655, 0.0000097143, 0.1062883213, 0.1717067808, 0.2570161223, -0.0000131778, -0.0141809741, -0.1273914129, 0.0000228381, -0.0525606386, 0.1494919658, 0.1683973670, 0.2709415257, 0.0126787899, -0.1784670055, -0.2517607808, -0.0255804993, 0.0069944994, 0.0937219486, 0.0163061973, 0.0035903323, 0.0952606574, -0.3774336874, -0.0603721701, -0.1926514506, -0.0917492881, -0.0563553125, 0.0024615536, -0.0002821799, 0.0372807570, 0.0038163741, -0.0011087933, 0.1278549135, -0.1821324974, 0.0172199942, 0.0005655459, 0.0010248851, 0.0106266672, -0.1575231701, 0.0023332206, 0.0001062713, -0.1032831222, -0.0951784998, -0.0026432213, -0.0265361965, 0.3031005859, 0.1209697574, -0.0462595820, 0.0033469440, -0.1856539249, -0.0000582065, 0.0885386318, 0.0009093843, 0.0001676382, -0.0008309736, -0.0019483905, 0.0105424738, -0.1211302727, -0.1418074071, 0.2147390544, -0.0207086746, 0.0267549790, 0.0005844662, -0.0023326927, -0.0426378250, 0.0000128276, -0.1314667165, 0.0026264433, 0.1959825158, 0.0000411304, 0.2471018136, -0.0707887709, 0.0007066231, 0.0743902177, -0.0015273475, -0.0377952643, -0.1919325441, 0.1245087236, -0.2118101865, 0.0195153616, -0.1733622998, 0.1238194704, -0.0965660587, -0.3093977869, 0.1238406152, 0.0274413601, -0.0005383487, -0.3895906210, 0.0597516224, 0.0074737277, -0.2172452956, -0.0017238570, 0.0001340954, 0.0046431576, -0.0125159351, 0.1045908928, -0.0789239556, -0.0511677936, 0.0454715081, 0.0002597999, -0.0102726221, 0.0079424661, -0.2756145895, -0.4277608395, -0.0000050378, 0.2292421162, 0.1415597498, 0.2102756798, 0.2524567544, -0.0138428891, -0.3063045740, 0.0040578181, -0.1728731990, -0.0050672013, -0.0003767755, -0.4503927827, -0.1041964516, -0.0001462274, -0.1319358349, -0.0020994691, 0.0137024308, 0.0016172937, -0.0118458811, -0.1292494237, -0.1328044683, 0.0020317871, -0.0195260756, -0.2368581444, -0.0019324747, -0.0000293406, 0.1104978174, 0.1739052236, 0.0394277088, -0.0000335944, 0.0331411213, -0.2624887824, -0.1205548272, -0.0137901288, 0.2893462479, -0.1185322031, -0.2892844379, 0.0656074435, -0.1072519273, 0.0003939936, -0.0024994339, 0.1299923807, -0.0062036430, 0.2916230559, -0.0009109566, 0.0040325839, 0.0571829006, -0.0047959434, 0.1619794071, 0.0233932715, -0.0694289878, 0.0008903553, -0.0000626732, 0.0575011522, 0.2694716156, 0.0833088681, 0.2149421722, -0.3280208707, 0.1267932802, 0.0004454009, 0.0010183948, 0.1060180664, -0.0044291443, -0.1856589615, 0.0000387116, 0.1944326758, -0.0287237689, -0.0011417597, 0.0008887214, -0.0009120438, 0.0462524928, 0.0835346803, 0.0946166739, 0.0331420340, 0.0006866406, 0.2598726451, 0.1849914938, 0.0000404222, -0.0051692291, 0.0072557307, -0.1291183233, 0.1851155460, -0.0008554505, 0.2259639651, 0.0903385729, -0.0348126292, -0.1436508447, -0.2096338272, -0.0036701611, -0.0000269871, 0.0040560015, -0.3913734555, -0.0010488150, 0.0000102250, -0.0792637318, -0.1665779203, -0.0029605443, 0.0351747796, -0.0097508132, -0.0612733401, -0.3444294333, -0.1972572058, -0.0296525750, -0.4044739902, -0.0031241968, 0.0181659851, 0.1770282686, 0.0021451593, 0.0128149744, -0.3778692186, -0.0013455828, -0.0018920070, -0.0431395695, 0.0172232427, 0.0356767476, 0.0021015098, 0.0003839711, 0.3946815431, 0.1455145627, 0.0043525919, -0.0036665550, -0.1268966794, -0.0496766232, -0.0282785650, 0.0010123941, -0.0113081057, -0.4365679324, -0.0029329574, -0.0000441460, 0.0068136523, -0.1354056299, 0.0035187039, 0.0014078037, 0.0301265456, 0.0013869866, 0.0023738004, 0.0005306331, -0.1165711880, -0.0004419220, -0.0246167574, -0.2921087742, 0.0000184511, -0.0490341857, -0.0017002522, 0.0024503481, 0.0845474377, -0.1700426936, -0.2377469242, 0.1033189446, 0.0023768744, 0.0001148200, -0.0016288061, -0.0027345428, 0.0000112112, 0.0563111044, 0.0348741747, -0.2022382617, 0.0000428879, -0.0524345599, 0.1084006280, 0.1328216791, 0.1570493728, -0.0022411016, 0.0659485087, -0.0974102020, 0.1754422486, 0.0972321555, -0.0024776189, 0.3001289666, 0.1011418551, 0.0756316110, 0.0849736929, 0.2034529448, 0.0078389002, 0.2674799263, 0.0010408543, 0.0045619891, 0.0080629634, 0.1872673631, 0.1859076321, -0.0001053487, -0.3182654381, -0.0105192624, 0.0142371776, 0.0257458501, -0.0006182267, 0.0665632710, 0.0002915402, 0.1962759942, 0.0038513823, -0.0020164484, -0.0048822151, -0.0000598844, 0.0452875011, -0.3038631678, -0.1694097370, 0.0015653156, 0.0005704493, -0.0006395768, 0.0378550962, 0.0599518269, -0.0005049957, 0.0013236000, 0.0844853148, 0.0071194065, -0.0000002904, 0.1964165866, 0.0016189702, 0.0303815491, 0.0011967497, -0.1117469296, -0.0420065150, -0.0981820002, 0.1073789746, -0.0042228540, 0.0931490660, -0.0044611525, -0.0000035722, -0.0696257576, -0.0133133139, 0.1041949466, 0.0000391204, 0.0994786620, 0.1307083368, -0.1913521737, -0.0930977091, -0.0512046292, -0.1661083698, 0.0013684987, -0.0146228047, 0.0430444963, 0.0010667649, -0.0312964842, 0.0053426488, -0.0034463457, -0.0014332508, -0.1691950858, -0.0079778526, -0.2458724380, -0.1133440882, -0.0004723607, 0.0225363988, -0.1452956498, -0.0004984179, -0.0001041344, 0.0117720114, -0.1141685769, 0.1415453553, -0.0014299531, 0.0011858018, 0.0116393669, 0.0000531389, -0.0286652967, 0.0016137804, -0.1346017867, -0.1688744426, 0.0000203920, 0.0050493823, 0.0375358053, -0.0013171120, 0.0322739109, -0.0034450844, -0.0036042277, -0.9918943644, -0.0341063254, 0.0003282055, -0.0007015575, 1.2330582142, 1.2617770433, 0.0001496754, 0.8957234621, 0.4852279425, 1.4566270113, -0.0112113720, -0.5981711149, 0.1980300844, 0.0017708088, 0.6078773737, 0.1018832996, 0.1620630622, 0.5656177402, -0.0000758466, -0.0029791030, -0.0062572462, 0.7778197527, -0.0000228127, -0.0005204753, -0.7260247469, 0.4481014907, 1.1203693151, -0.0046444214, 0.0539073795, 0.5424893498, 0.2745040655, -1.0237103701, 0.0046643186, -0.2681958079, 0.2552467883, -0.0634541884, 0.1008253396, 1.7930049896, 0.0033470816, -0.5328029394, 0.0143265231, -0.0226871502, -0.9039661288, -0.9870905876, 0.0656328350, 0.0000581134, 0.6129470468, -0.3963832557, -0.5280335546, -0.3349242210, -0.0458349027, 0.5581480861, 0.0006804266, -0.0111514898, -0.4170294106, -0.6730002165, -0.0038480717, 0.0000183600, -0.2667354047, 0.2216875106, -0.2507006526, -0.3674140275, 0.2133755684, -0.4249033928, 0.1016010940, 0.0012849078, -0.3658054471, 0.0031528370, -0.0057167015, 0.0870976895, 0.0000975630, -0.0164862070, -0.2465353310, -0.0034124677, -0.0605129711, -0.2785706818, -0.1589798629, -0.1742548794, 0.0813374743, -0.2477892637, 0.0377744548, -0.3287333250, -0.0000464111, 0.0748866424, 0.1031754762, 0.1236455664, -0.0000144290, -0.1528496742, 0.1264676303, 0.0964571089, 0.0977164656, -0.0201288089, -0.0212088022, 0.0019348308, 0.1018894315, 0.0417459421, 0.0073185577, -0.0378320329, 0.0608079322, 0.1354359239, -0.1334848106, -0.2804486156, 0.0017853461, 0.1809100211, -0.0032515228, 0.1068831682, 0.0014303298, 0.1436858177, -0.2018894255, -0.0002345395, -0.0231883656, -0.4507377446, 0.2225764543, 0.6787534952, -0.0221596640, -0.0052652783, -0.0018790145, -0.0025473691, -0.6594017148, 0.2516806424, 0.1154513583, -0.0000902853, -0.0409199111, 0.1806195229, 0.0724061728, 0.0010388109, -0.0760859698, -0.0082735615};

#endif

#endif
