//Numpy array shape [32, 32]
//Min -1.930714845657
//Max 0.787080466747
//Number of zeros 0

#ifndef W8_H_
#define W8_H_

#ifndef __SYNTHESIS__
model_default_t w8[1024];
#else
model_default_t w8[1024] = {-0.0814562142, -0.0619090013, 0.0983109176, -0.1339329332, 0.4283040166, 0.2084077001, 0.0083057387, 0.2185571045, 0.4121438265, 0.0022202502, 0.4182265699, -0.0000599777, -0.0527160726, 0.0020165946, -0.0104821846, 0.3917620480, 0.2072563320, 0.3221303225, 0.0001081587, -0.4048700333, 0.3646098077, 0.2761381567, 0.1046475768, 0.4184485376, -0.0000485247, -0.0020251642, 0.1330758631, -0.3613169193, 0.0002697575, 0.5805933475, 0.2501005828, 0.4517747760, 0.2164255083, 0.0009315063, 0.0018011787, -0.7283639312, 0.4649840295, 0.7870804667, 0.0006341600, 0.0057213036, 0.0006898714, 0.0005732587, 0.0003549471, 0.0000874179, -0.5180266500, 0.0006956679, -0.0513874888, -0.4592701495, 0.0029566435, -0.0017030570, 0.0001526791, -0.1027957276, -0.0016153723, -0.0002421818, 0.0015292531, 0.0023187762, 0.0000498597, -0.0002452246, -0.0000146606, -0.3192000687, 0.0001315387, 0.0025458904, 0.0011807731, 0.3246928453, 0.0197204966, -0.0009709089, 0.0001719794, 0.1301456839, -0.0001865011, 0.0040218402, 0.0001441595, 0.0030351456, 0.0011723358, -0.0008223060, -0.0006201515, 0.0000369012, -0.0010385398, -0.0002320310, 0.0234663803, 0.0018158588, 0.1014193147, -0.2772033215, 0.0001620765, 0.2323546261, -0.0021742629, -0.0312588103, -0.0000219558, 0.2524723709, 0.0000873268, 0.0003906916, -0.0022896752, -0.0276081581, -0.0264529269, 0.0001223506, -0.0006522299, 0.1754659265, 0.0018438911, -0.0245510340, -0.3454691470, 0.0029009283, -0.1076809019, 0.0007331811, 0.0708407164, -0.2109680772, 0.1958809197, -0.0900971368, -0.0001139793, 0.0000054239, -0.0522698015, -0.0008840953, 0.1375371218, 0.3113506436, 0.4606463909, -0.0301944315, -0.0000942942, 0.0030319639, -0.0007336672, -0.0030866282, -0.0042516426, 0.0065405765, -0.0000118761, 0.0019099080, -0.0056901379, -0.0011279798, -0.1789174080, 0.0012848909, 0.0027329328, 0.0002798107, 0.0532639176, -0.2145384699, 0.0137314713, -0.0685967430, -0.0001343463, 0.0402371585, 0.0007908879, -0.1705697626, 0.0895974189, -0.0727771446, -0.0003251744, -0.0000173514, -0.2031474411, -0.1673020869, 0.0713843554, 0.0030315067, 0.0894391239, -0.2076239437, -0.0001394746, 0.2460135818, -0.1114792675, -0.6050874591, -0.0046841870, 0.0343859792, -0.0000481131, 0.0002690346, -0.0039945240, -0.0015032196, 0.0011831245, 0.0916397125, 0.0011318928, 0.0006602800, -0.0000292399, -0.0006157814, 0.0005748150, 0.0737554431, -0.0002628944, 0.0003209570, -0.0005267046, -0.0002110848, 0.0009088999, 0.0001011513, -0.0003612625, 0.0000124562, -0.0000682583, -0.0000513342, 0.0002449375, 0.0000856734, 0.0003921717, -0.0001409997, 0.0000563893, -0.0865520462, 0.0004487586, -0.0002194742, 0.0002548833, 0.0005340863, 0.0000475848, -0.0003321753, 0.0003283370, -0.0000659735, 0.0000558141, 0.0001249544, 0.0004574251, 0.0000655929, -0.0059434045, -0.0230406821, 0.1957454383, 0.4674015045, -0.0153805334, -0.1110119298, 0.2081702203, 0.0017336662, -0.1679262072, 0.2797265649, 0.0014084117, -0.0000915697, 0.2964686155, 0.1022211984, 0.1330028325, 0.1616429687, -0.2528462112, -0.1596079916, 0.0000681877, 0.4379296005, -0.0001349356, 0.1086765379, -0.0001175406, -0.1320853084, 0.0000237406, -0.0038226962, 0.2362814844, 0.4925402105, 0.2103786916, -0.0006267557, 0.0036917839, -0.1292978674, 0.0723514929, -0.5255041122, 0.0837902501, 0.2273488790, -0.0123230573, 0.0001374178, -0.0010786017, -0.2000121921, 0.0035391925, -0.9914588332, -0.2697078586, -0.0000677639, -0.0031602131, -0.2204726338, 0.2368413657, 0.0302352719, 0.0083775725, -0.9149644375, 0.0002460102, 0.1340360343, -0.2301377803, -1.7012627125, -0.0074612997, 0.0499031544, 0.0000108694, -0.0016028238, -0.6984734535, 0.1621520668, -0.1577822268, 0.0005198980, -0.0172762685, -0.0004978054, 0.0308079980, -0.0003534968, 0.4454566240, -0.1729989648, 0.0035711799, 0.0962583795, -0.0006701121, 0.1363056004, -0.2811208963, 0.3557440042, 0.2798466384, 0.0000431203, -0.0003065924, -0.0292708520, -0.1851554513, -0.1178909168, -0.2761904895, 0.0676778033, 0.0000595234, 0.2248875350, 0.2769650817, 0.1449109018, 0.1067441180, -0.8400664330, 0.0001420500, 0.1418447644, 0.2720170021, 0.0130951675, 0.0015053387, 0.0002904817, 0.0000937546, -0.0841724873, 0.0006206851, -0.0008731174, 0.3632867038, 0.0204129461, -0.0009648295, -0.0006157512, -0.0012951065, 0.0562114567, 0.0014895238, -0.0001022633, 0.0011417199, 0.0000595611, 0.0805038437, 0.0010856205, -0.0004400726, 0.0025609056, -0.0010254802, -0.6040451527, -0.0000456657, 0.0039869286, 0.0009784419, -0.3175324202, -0.0003363583, 0.0468376055, -0.0001649496, -0.0000048806, -0.0012907605, 0.1656420976, 0.0014113622, 0.0000115947, -0.0013917736, -0.0002366579, 0.2349391282, 0.1843069792, -0.1076340899, -0.0011691416, 0.1384641379, 0.0018823788, 0.3353911340, -0.2859222591, 0.3194430172, 0.1062783748, 0.1573576033, -0.0000276606, -0.1523656696, 0.0007356689, 0.3859383762, 0.2727535069, 0.1315983385, 0.1693713814, -0.0000639073, 0.0008706060, 0.0014917112, 0.1021278724, 0.0202740449, 0.0072663510, -0.0000781360, 0.0016630110, -0.2164057642, -0.1001102254, 0.0013176322, 0.0020441019, 0.0023945540, 0.0955093279, -0.0006190633, 0.2335165292, 0.0976513475, -0.0005674510, 0.0023931488, 0.0802968815, 0.1310644895, 0.3323870897, 0.0009525448, 0.0004465357, 0.3592971861, 0.0000286492, -0.0016504106, 0.1289087832, 0.0945311710, 0.0008869766, 0.0038383745, 0.0021323445, 0.0000126637, 0.2878285646, 0.0378941670, 0.1527125835, 0.0729363561, 0.0040216404, -0.0000826657, 0.0000606951, -0.0009120297, 0.1590137482, 0.0775868669, 0.0005612223, 0.0004108450, 0.0007689563, 0.0366492011, 0.0005440939, 0.1331013888, 0.1994598061, 0.0460320488, -0.0900436714, -0.0107111493, 0.0060211020, 0.0020088253, -0.5551675558, 0.0050637787, 0.0000535544, 0.1858567744, 0.0072815404, 0.2591999471, 0.0022382718, -0.0019240660, -0.4875171781, 0.0000633133, 0.1566652358, 0.0041669728, -1.1273839474, -0.0063785580, 0.1412700415, -0.0002855600, -0.0002877087, -0.0036351751, 0.0687223598, 0.0041051381, -0.0002361951, -0.1781439930, -0.2422930449, -0.0045965496, -0.0467514619, -0.3121083975, 0.2303955108, -0.1534050256, 0.0005542368, -0.0010836456, -0.0862552449, 0.5145438910, 0.0013130159, -0.1820780337, 0.0000710360, -0.0119253667, 0.0037248568, 0.0018661957, 0.6304187775, 0.3417254090, -0.2031939179, 0.0000726819, 0.0016632054, -0.1091156602, 0.0126739927, -0.0028353098, 0.0020128649, 0.0000533768, 0.0000561930, -0.0016508793, -0.0021910202, -0.1914576590, 0.0000167225, 0.0002282730, -0.1426330507, 0.0001229457, -0.0000398164, 0.0000175457, 0.0002326572, -0.0001086541, 0.0000623389, 0.0000223104, 0.0001346565, 0.0000170931, -0.0000339537, -0.0000319648, -0.0000948094, 0.0001973593, 0.0001782346, -0.0001833594, -0.0002318366, -0.0000708692, 0.0001233711, 0.0000742135, -0.0000524930, -0.0003204094, 0.0000502718, 0.0001115922, 0.0000232114, -0.0000366864, 0.0001109328, -0.0000250963, 0.0000005568, -0.0000466134, 0.0000649433, 0.0000739714, 0.0000894343, 0.0743246973, 0.1148547083, 0.0604263246, 0.0042766174, 0.1374574453, 0.0009034821, 0.0448858403, 0.3752900064, 0.0010226361, 0.0816938132, 0.1597124189, 0.0000091862, -0.0010820226, 0.1245361865, 0.0092397099, 0.0365268365, -0.0546173118, 0.0723851472, -0.0000823491, 0.0638412461, 0.0616560057, 0.2561268210, -0.0002927599, 0.0028290974, 0.0001142956, -0.0000485276, -0.0005834010, 0.0857838243, 0.2967239022, 0.0003434345, -0.0001099491, -0.0013050362, 0.0002447842, 0.0000063283, -0.0000933527, -0.0000700798, 0.0001000838, -0.0002628440, -0.0000179387, -0.0000539052, 0.0001077785, 0.0000837477, 0.0000819617, 0.0002679160, 0.0003140020, -0.0000632733, 0.0000603749, 0.0000491764, -0.0001381881, 0.0000038712, -0.0000628602, -0.0001125508, 0.0000691616, -0.0002557006, -0.0000689064, 0.0000366941, -0.0001071216, 0.0001587437, -0.0000151992, -0.0000857025, 0.0002044017, -0.0001544733, 0.0001242583, 0.0002390148, -0.0024412337, 0.0018618525, 0.0025698366, -0.3988724351, 0.0015507184, 0.0013451257, -0.0542337075, 0.0012208235, 0.0021383602, -0.0024509092, 0.0685373023, 0.0000590506, -0.1098319963, 0.0029303569, -0.0527491830, 0.0000291758, -0.0009332765, 0.2784377337, -0.0001208462, 0.0037023467, 0.2906674147, -0.0044516097, -0.0023676683, 0.0010979449, 0.0000203310, -0.0004237076, -0.0038383752, -0.1827515066, 0.0008638141, 0.0000519158, -0.0005853217, 0.0006558620, -0.1812607199, 0.2070996910, -0.0001430326, -0.3175307512, 0.2055843323, 0.1030326709, -0.7273610234, 0.0035762910, -0.0007772400, 0.0019175808, 0.3697668016, -0.0000043487, -0.0022127896, -0.0881207734, -0.9571694732, -0.0014123233, 0.0040160487, 0.0039279400, 0.0000065664, 0.0026877539, 0.3584002852, 0.0526167825, -0.0000104771, 0.0083965613, -0.0001264759, -0.0016277055, 0.0003854483, -0.0068861791, 0.0014583919, 0.0023187117, 0.0020730055, 0.0028874297, -0.6766145229, -0.6230597496, -0.4910388291, 0.1439593136, -0.1631719619, 0.0002541883, -1.9307148457, 0.0890673175, 0.1144865453, 0.0083397245, -0.2044226676, 0.0000192160, 0.1571751684, 0.0058933990, -1.1543669701, 0.7659966946, 0.7590412498, 0.2673130929, 0.0000748984, -0.8536067605, -0.5534860492, 0.0074280053, -0.3972173333, 0.1627074927, -0.0001070373, -0.0020079119, -0.2175181210, -0.4022090137, -0.1274257451, -0.0002229097, 0.3139687181, -0.0000529693, 0.0000410909, -0.0001815449, 0.0002282419, -0.0001494797, 0.0000923617, 0.0000953589, -0.0000005209, -0.0001351820, 0.0001090266, -0.0000761254, -0.0000737203, 0.0001539980, 0.0000006843, 0.0002981901, -0.0001801830, -0.0001640681, 0.0001648172, -0.0000636721, -0.0001994015, 0.0002440316, -0.0000376200, -0.0002034738, 0.0000210078, 0.0001307791, 0.0004224356, -0.0001127062, 0.0001256997, -0.0000486082, 0.0001193543, -0.0002752986, 0.0000380123, -0.0000701515, 0.0677126795, -1.7452464104, 0.0520528406, -0.0474353805, -0.0017600346, 0.0210056156, -0.1084423438, 0.1701109856, 0.2420880198, -0.0792604685, -0.0028897426, -0.0000713811, 0.2063567042, -0.2876909077, 0.0763965398, 0.0042357068, 0.0001763500, -0.6172350049, 0.0000588725, -0.0011178831, -0.0048524593, -0.1141927764, -1.5183249712, 0.0114691835, -0.0001057989, -0.0063751852, -0.2858788371, 0.1778293401, -0.0006650714, 0.0834449530, 0.1125769541, 0.2152113318, 0.0001289706, 0.0001764833, -0.0000904499, 0.0000699594, 0.0000559222, -0.0001720297, -0.0000882095, 0.0002794068, -0.0001774804, 0.0001308588, 0.0000071252, -0.0001161416, 0.0001043103, 0.0001241702, -0.0000023161, -0.0000323084, -0.0001005573, 0.0000139499, -0.0001460088, 0.0000995616, -0.0001736051, 0.0000122850, -0.0000346108, -0.0000083516, 0.0000133902, 0.0000300100, -0.0000651742, 0.0000322833, -0.0000287058, 0.0000413056, -0.0001560356, -0.0000311878, 0.0065798345, -0.0231925417, -0.0412890390, 0.4063548446, -0.0366915725, -0.2137320936, 0.0247636512, 0.0022007339, 0.0664237142, -0.0002257824, -0.0010542073, -0.0000640123, 0.2345964611, -0.5565181375, 0.1013848186, 0.0065543125, 0.2208109349, -0.2474263906, 0.0004234274, 0.0006935803, -0.1506373733, -0.1871696264, -0.0027255127, 0.0028034335, -0.0000374282, 0.2283411324, -0.0021767581, 0.0003970670, -0.0008849165, -0.0016253146, -0.0218313001, -0.0666119307, 0.0008457606, -0.0012422868, 0.0006473310, -0.0000135825, 0.0008506033, 0.0018334958, -0.0005042238, 0.0010747564, 0.0005994088, 0.0000036717, -0.0003673511, 0.0000230027, 0.0002022035, -0.0001999305, -0.0055836048, 0.0004025544, 0.1545475870, 0.0001470206, 0.0001271504, -0.0002062718, -0.0003019570, -0.0002213473, -0.0008880877, 0.0000822055, -0.0000877589, 0.0002776161, -0.0000951125, 0.0000180034, -0.0002147527, 0.0009507777, 0.0005200967, 0.0013251062, 0.0004458057, -0.0016239217, -0.0003385587, 0.0111822877, -0.0013317887, 0.0008092939, 0.0000430563, 0.0074576847, 0.0015201385, 0.0039443201, -1.0365304947, -0.0000010661, 0.0747676343, 0.0019461525, -0.0034613169, 0.0720239133, 0.0046220794, 0.0041198409, -0.0000496254, 0.0012022593, -1.0773059130, 0.0073007098, -0.0009593765, 0.1920398772, 0.0000133893, -0.0007740952, -0.0007069896, 0.1536225230, -0.2269897610, 0.0006580814, -0.0002779943, 0.0005830680, -0.0010763758, 0.2714553177, 0.0618341453, 0.2443200946, 0.0056663472, 0.0002221657, -0.0007642598, 0.0005711029, 0.2520601749, 0.2086118162, 0.1548063010, 0.0001449781, -0.3451983035, 0.1054076180, -0.0168740228, 0.0438926816, -0.4466071427, 0.0018443262, -0.0000879466, 0.0024112272, 0.5226761103, 0.2279383987, 0.1482657790, -0.8348758221, 0.0000217319, 0.1158671603, -0.0003034696, -0.0012923563, 0.0264849123, -0.0009552016, -0.0010275001, -0.0253902413, 0.1765767783, -0.0015639361, 0.3186674118, 0.0342489704, 0.0019622354, 0.0017009720, 0.2899609804, 0.0036747321, 0.0006286498, -0.0006254320, 0.0000570758, -0.0000338877, -0.0013735318, 0.0017288261, 0.1806006134, 0.0006940083, -0.0005610865, 0.1651451439, 0.0001202720, 0.3129212260, -0.0003780093, -0.0011113994, -0.0009858173, 0.0013876776, 0.0002723991, 0.0005918492, -0.0007410261, 0.0001929505, 0.0014648557, 0.0009791795, 0.0013381207, 0.0006560745, -0.0001779448, 0.0001135344, -0.0000407544, -0.0000049438, -0.0002719925, 0.0000829272, 0.0000757219, 0.0001491938, -0.0001105269, -0.0002546731, 0.0002066770, 0.0000213951, 0.0000812044, 0.0000658190, 0.0000231407, -0.0001299566, -0.0001443698, -0.0000784117, 0.0001052401, 0.0000006526, -0.0001979718, 0.0004794600, 0.0000131106, -0.0002203504, 0.0001235323, -0.0000006222, 0.0001057366, 0.0000571285, -0.0000491652, 0.0001248504, 0.0003085461, 0.0001262408, 0.0022049360, 0.1501647681, 0.0073093660, 0.0019512743, -0.0006685165, 0.2862413526, -0.0045479294, 0.1746436656, 0.0527046658, 0.0876541659, -0.0008068241, 0.0000364944, -0.0019969579, 0.0964306295, -0.1099734530, 0.0197242275, 0.1555713862, 0.7611853480, -0.0000372305, 0.0027050504, -0.0024394342, 0.4337247014, 0.0496904291, 0.1258227527, 0.0000520419, -0.1401508898, 0.0136572979, -0.2086464763, 0.0009149524, 0.0315603130, 0.0005184450, 0.1872679442, -0.3570954800, -0.2102167308, 0.0020486847, 0.5879321098, -0.0011011974, 0.0014677226, 0.1565614194, 0.0032060563, 0.0012420960, 0.0014046283, -0.4096023440, 0.0000612449, 0.0019710802, 0.0045182840, -0.0038264047, 0.2401351482, -0.0001778420, -0.2042333186, 0.0000584424, 0.0019411589, -0.4732320607, 0.2181114852, -0.0016065337, -0.0004195147, 0.0000528824, 0.0011282446, -0.0015335929, -0.0017630040, -0.0002446373, 0.0002371114, 0.0003758254, -0.0007797090, 0.0163095649, 0.6309585571, 0.0004025128, -0.0005277144, 0.0008834811, 0.0022085959, -0.0196169931, -0.1491844058, 0.0010365329, 0.0001552201, 0.1765995920, -0.0000322574, -0.0324072652, 0.5403320193, 0.0006216261, -0.0010777261, -0.0025230513, 0.3016507030, 0.0001181384, 0.4786008894, 0.1648945212, 0.1575970203, 0.5876315832, 0.0635588244, -0.0002382583, -0.3472333550, 0.1050103381, 0.0013840385, 0.0036170990, 0.0003797408, -0.5105474591, -0.0008854173};

#endif

#endif
